0.0909642989165,6.15451261784e-17,4.1088302779e-15,8.48261321103e-26,6.55243854148e-17,0.193976431327,-8.57630466117e-16,0.194704472222,2.00181213078e-15,-0.230284287042,2.2940673354e-15,2.45471586469e-29,4.07807479574e-22,-2.52653127753e-15,0.0,0.297417858885,-0.176910621647,-3.89226992438e-12,1.27539747602e-08,-0.310402911086,5.10315681606e-19,-1.93867194289e-34,-0.287598669478,6.56668634056e-09,-1.39406426457e-15,3.14573057433e-20,0.270649653501,0.0,-1.21295158916e-06,1.05724842445e-17,8.09700499005e-17,-0.291156860568,-0.0,0.233763279843,7.31293541457e-14,-6.48701685173e-06,2.30075454134e-20,4.39992408165e-15,-3.78714970473e-16,-0.229381320162,-0.117945102175,5.91712476402e-15,0.0,-0.219064581221,0.0623215121582,-2.0080644844e-14,-0.107770170396,2.34426837783e-16,-1.61035565356e-24,-1.23191733138e-14,1.58038529655e-15,6.75379404235e-23,-0.128882673911,-1.00665212031e-14,3.23594273536e-15,0.142167405371,3.56042099075e-28,0.0,-2.17328204484e-16,0.0,0.00653432039565,3.31843897417e-17,4.28799804261e-30,0.0,-9.56806568757e-17,-0.0755267595563,0.0,1.71635740638e-15,-0.0610801540025,1.41527704338e-28,-0.0,3.80504303829e-15,-1.32383450487e-13,-0.0329476261406,7.58412361215e-13,0.0,-0.0151130930305,-0.0200652119538,0.0,-5.66527248348e-15,0.0,-2.1946511662e-13,0.00819666750953,0.00853161467927,1.46890984874e-11,-0.00440813267251,0.010943151793,-2.01796092456e-11,0.0,7.19074103949e-12,-0.00802010534611,0.00383604224177,-0.0,-4.73417386447e-15,-0.00900773272059,-1.93937262942e-16,-2.47804395193e-16,0.0,-0.000442169812826,0.0,-1.94618533435e-17,-0.00164436991293,-0.00205796273984,-7.84528255243e-16,3.26270233455e-16,0.0,0.0,0.00527795008736,0.0,-2.42752124821e-16,-0.00651598579548,-1.87436853278e-18,-0.00617660336189,0.0063336133893,0.0,-3.36001401313e-16,0.0,-9.14599511931e-16,-0.0143598195546,0.0,0.00986952972789,1.78651551832e-14,0.0,0.00227978509402,-1.77004658111e-18,0.0,-0.0,1.80456291476e-18,-0.00611111729374,-5.08475870609e-16,9.08460361245e-29,0.0,1.09370605665e-17,0.00841794032936,0.0,0.0046204925646,0.00338277855948,-3.54681253464e-14,1.34190797979e-12,-0.00178707375441,0.0,-1.42468911071e-14,-0.00521943577725,6.96497890448e-17,0.0,2.28734335062e-16,9.1878020495e-14,-0.00182161838438,-0.00135707490655,-1.39754614001e-14,-0.00203444944779,0.0,0.0,7.64535061753e-16,-0.00191292188869,0.0,0.0,5.69650533979e-17,2.9347548823e-17,0.000753615813659,1.45065410184e-17,0.0,0.0,0.0,-0.000457534617968,1.29818988247e-17,4.3062048678e-19,2.94219951463e-05,0.000228111777212,2.13948323951e-18,3.25901935899e-17,0.0,0.0,0.000183238846395,0.0,-2.30825612494e-18,6.54900678e-16,0.000350506402393,0.0,1.04063450449e-16,0.0,3.46239681724e-17,-0.000798266962323,-0.0,0.000460078369677,0.0,2.77177314488e-17,0.0,2.81699290664e-18,-0.000493259692619,0.000470250384989,1.60711868179e-18,1.97760214492e-17,0.0,-0.000268445187225,3.22951493317e-26,0.0,-4.44211553024e-16,3.70925427304e-19,3.84461508394e-05
-1.84307952814e-15,0.0909642989165,0.19048789751,-0.017202647854,-0.0323308787294,-5.7059722378e-15,0.194704472222,2.22179449967e-15,-0.230284287042,-2.42377581782e-15,-3.16437928075e-14,-3.74059933343e-15,-0.237837896679,-0.143512352018,-0.106276631982,-6.05943954456e-16,3.88916290485e-12,-0.176910621647,-0.310402911086,-1.27540124495e-08,0.0541261402887,-0.266640459842,-2.1279727509e-09,-0.0931998969854,3.66575354199e-15,-2.01655904678e-15,4.78966013603e-07,-0.145559909799,0.106873174154,-0.201597798219,-0.291156860568,-3.9891310335e-15,0.0414229428027,4.70543551923e-06,0.155492119356,0.16956300201,-9.24482293559e-16,-8.90795337175e-15,0.229381320162,-8.58420602146e-16,-9.44262662361e-15,-0.117945102175,-0.0127088286848,-0.0220399311208,-0.0774719372802,-0.212659558137,1.59060288045e-15,-0.107770170396,-3.40448979641e-14,1.6686228e-14,-1.43770619592e-15,1.84386861087e-15,5.68072457303e-15,0.128882673911,0.127583685165,1.14624398051e-14,-0.0471175768665,0.0413993765634,2.86098235333e-15,-2.80643573698e-15,9.16805826925e-16,-0.0064196830998,-0.000271204415765,-0.00118804886093,0.0755267595563,1.41386922706e-15,0.0545005394391,-0.0244357745571,-8.33172937377e-16,-0.0127816014493,3.97650720112e-15,1.20579904394e-15,-0.0329476261406,1.31148994643e-13,-0.0185159856304,0.0154710206788,0.00558135857592,-0.00420387243368,8.47927041477e-15,-5.18832518922e-15,-0.0113625248813,-0.00304565929202,-0.000909525682284,0.00087381813275,0.00440813267251,1.46895316188e-11,-2.01777601057e-11,-0.010943151793,0.00231334249011,0.00584970839064,0.00271070675725,0.00566733949818,-2.42882535078e-14,1.51844611022e-14,3.69247097247e-16,-0.00900773272059,-1.67314783721e-16,2.47742710546e-16,0.000773998304724,-0.00130733177721,-0.000740243017092,-0.000208127552587,7.40861163066e-16,-0.00205796273984,3.51964891774e-16,-3.15595809613e-17,0.00178385907269,-3.34531558189e-16,0.00395812016824,0.0030013144899,-7.5742994307e-17,0.00651598579548,0.0063336133893,0.00617660336189,-1.26238323845e-17,3.20560159229e-16,-0.0140612233404,-0.00101684617152,-6.81686948763e-16,0.00272991569045,1.79384658184e-14,-0.00986952972789,0.00169425726769,-2.33540899113e-16,-0.000930283477054,0.00120891895431,3.96072741064e-16,-2.13988913278e-16,1.89357485768e-16,-0.00281315336304,0.00454332002207,-0.00296482139611,-0.00841794032936,3.85026887727e-16,-0.00536699711058,0.00106602817921,-0.00145607381303,-0.000854937020634,0.00178707375441,1.34155991517e-12,-4.00017688684e-15,6.92716423426e-15,-2.87192186747e-16,0.00521943577725,3.41632463906e-16,-1.91775054376e-16,0.00182161838437,9.08489877341e-14,-0.00183152248981,-0.000860434839758,0.00122171293783,-0.000627081821617,-1.83045569575e-16,6.65940928991e-16,-5.20733085861e-17,0.00172061502465,0.000795959572996,-0.000255347698894,-0.000753615813659,2.56816090072e-16,-5.70305799935e-16,-7.54273984974e-16,0.000432538527627,0.00010101227602,-2.05137276248e-17,-0.000109749117767,2.94219951461e-05,7.7789435885e-17,-7.87017050221e-17,-0.000228111777212,-1.09848117719e-16,5.99632038264e-17,-0.000104815476718,2.09575342321e-16,4.91148828507e-05,0.000142049001936,0.000350506402394,-6.27443918986e-16,8.45599522381e-16,6.68112831005e-16,0.000170865635269,-0.000478425429478,-2.80091281031e-17,0.000615746852406,4.14219500117e-17,0.000314500596502,-7.43060662997e-05,-0.000327475326636,-0.00049325969262,1.57797904806e-18,1.39651145754e-16,-0.000470250384989,-1.51333521429e-17,2.04151039343e-16,-6.70641095427e-18,-0.000141255906101,-0.000214624385865,7.77557748871e-05,-3.84461508394e-05,-3.26937534021e-17
0.111879446793,2.56027824816e-16,-0.0011703540987,0.00380483265793,-0.00892000153713,0.218136555067,-7.20158178105e-16,0.201293124101,6.30299182724e-15,-0.189218239293,-0.0413393756657,0.012950519402,-0.00879954049599,0.0325126809575,-0.0242114100091,0.221286811492,-0.0717004902653,-1.57776213176e-12,4.12882796959e-09,-0.100487178328,0.0709575972712,0.0382923162081,-0.0926236323659,-0.0683436349891,-0.0266255299079,0.115469681944,-0.0450757241949,-0.0154225303861,-0.00393427071678,0.00904976422743,-1.5733208623e-15,0.0649591777042,0.0953410122026,-0.0744685415867,-0.138137990687,0.103385843841,0.0887947789006,-0.188165045479,1.7195479382e-15,0.175895794096,0.113145336521,-1.43029626324e-14,0.147320223699,0.279457459793,0.129856319994,-0.0850735865643,0.134985622254,-8.59509118943e-14,0.282781185434,-0.0418751641736,0.0340834829611,0.038951948829,0.225028725807,2.35886810241e-14,0.108374312837,-0.268045280994,0.0601081439048,-0.265575113226,-0.151512116157,0.253850031675,-0.0328680168648,-0.00691381492531,-0.0966921739041,0.0594317689161,-1.02275498458e-14,0.21247825921,-0.104930822579,-0.230261927732,0.180093199581,-0.00721019815746,0.00341946565254,-0.237374907142,5.73093727986e-13,0.141030257028,-0.0453909031149,-0.083638709411,0.120431255402,0.0520118368418,-0.0258979970576,-0.142031955858,0.028134743553,-0.0923308727711,-0.0513821250953,-0.00945279002691,-1.28285299656e-10,0.038498072753,-0.0641470330264,1.18325693445e-10,0.0481873980301,0.0199264259116,0.0298131390636,-0.0544968964388,0.0346130606199,0.0516507347255,0.0840899570998,1.49759703087e-15,0.00650590436209,-0.00168858770097,0.0314619679468,0.000204226389126,-5.09844681533e-05,0.115901324944,-0.0603614284867,-2.16386168948e-14,-0.000458586596682,-0.00325252506819,0.000923796902932,0.0722915146415,0.00411706279623,-0.00597863130795,-0.0658605758382,-5.4840795405e-16,-0.0478250636709,0.0490407827511,0.00556312636764,0.00785131440814,0.000228276030176,0.00747684178233,-0.0558624343054,0.00396079564757,0.0373084364733,6.7145807384e-14,-0.0013671180864,0.00607426338782,0.0105794359381,0.0100570217384,-0.00798508981835,-0.0163815129208,-0.0130089479563,0.00747081676877,0.00257938322017,-0.00313596964091,-1.82589267484e-16,0.0126577593993,0.0034310605474,0.00723483202932,0.0024423961393,-0.016677563311,2.93831488476e-12,-0.00391209531912,0.00725285163262,-0.0147798007436,-0.00300533286114,2.13890015194e-14,0.000251513565605,0.00535628446916,2.75146218334e-14,-0.000536465089137,-0.00254114003506,0.00876272112308,0.00219039470803,-0.000334185843757,-0.0023840901224,0.00796101608133,0.00594470171704,-0.00018862159583,0.000399902490612,-2.44331008949e-05,1.24480563342e-15,-0.00238696898108,-8.12772538269e-05,-0.00102164774721,-4.52754781813e-05,8.80289448265e-05,0.00458228995812,-9.74165880803e-05,7.35659376338e-16,-0.00509413295721,0.0057312293724,-3.59393178369e-16,5.12870814758e-07,-0.00119054249852,-0.000128676769472,0.00181091377313,-0.000820023434089,0.000188583077674,2.68458968719e-15,0.00246848349378,-0.000221886450076,0.00135626975398,3.73309134669e-05,0.000590429490191,-0.00402972544522,0.000448395166126,0.00196471445757,0.00023641319349,0.0012456097781,-5.55897525732e-05,4.11542074328e-16,-0.000969096886542,0.00096525370485,2.47447933183e-16,0.000571825097293,-0.000111349852687,2.01954012823e-05,7.5324235647e-06,1.27167914434e-05,4.878522367e-05,7.19914035882e-17,-0.000192152517167
-1.36632251593e-15,0.111879446793,0.21563874893,-0.010390620201,-0.0327251361463,-5.71371233936e-15,0.201293124101,2.25132687285e-15,-0.189218239293,-2.26685326507e-15,-0.012950519402,-0.0413393756657,-0.153657266428,-0.12299394606,-0.109318275496,-7.45266826873e-16,1.57613065409e-12,-0.0717004902653,-0.100487178328,-4.12887209344e-09,0.0932041112509,-0.0960062542244,9.8130795365e-10,0.0429774894915,-0.115469681944,-0.0266255299079,-6.4737035582e-09,0.0248853515351,-0.00144449770805,0.0417813927388,0.0649591777042,-3.72633413437e-16,0.155771385768,-3.93818602942e-06,0.00130101912952,-0.141914735603,0.188165045479,0.0887947789006,-0.175895794096,3.1052784453e-17,2.41590663045e-14,0.11314533652,-0.205090771669,0.0615106315215,0.216214277675,0.176933611373,2.82114546756e-14,0.134985622254,-0.0418751641736,-0.282781185434,0.038951948829,-0.0340834829611,-1.5767051306e-14,-0.225028725807,-0.311063008797,-2.12245781737e-14,-0.181054415549,-0.167915148939,0.253850031675,0.151512116157,-1.36632251593e-15,0.0523383331269,-0.05828197855,-0.0887329075487,-0.21247825921,-1.64579757601e-15,-0.115393407713,0.0436569492135,2.67053946296e-15,0.28512280271,-0.237374907142,-0.00341946565253,0.141030257028,-5.56854057204e-13,0.0207912308252,-0.105426766774,-0.0969039284303,0.0729879200267,-0.142031955859,0.0258979970577,0.0427254705306,0.0432138408745,-0.0659071398807,0.0633196566447,-0.038498072753,-1.28288368411e-10,1.18275724118e-10,0.0641470330263,0.0248478797193,-0.0766654915745,-0.00392648148597,-0.00820918869528,0.0516507347256,-0.0346130606201,1.01697869084e-15,0.0840899570998,0.00168858770097,0.00650590436208,-0.0544657103289,0.0921043247401,0.052524256479,0.0146457878803,1.8437590769e-14,-0.0603614284867,-0.0032525250682,0.000458586596698,0.0312580856063,7.1421404242e-16,0.0516679500279,0.0404099709529,6.36582081288e-16,0.0658605758382,0.0490407827511,0.0478250636709,0.00785131440815,-0.00556312636764,-0.0529989596751,-0.00787755783053,6.21055689061e-17,0.0179250968658,6.5117688998e-14,-0.0373084364733,-0.00519969927145,-1.09461065197e-15,-0.0106776310047,0.0105254530636,-0.0163815129208,0.00798508981835,1.73895592937e-15,-0.00706850592369,0.00460344834171,-0.0130528863046,-0.0126577593993,-7.1421404242e-16,-0.00191156204897,0.0108914317259,-0.0148764627724,0.00215287917392,0.00391209531912,2.9381135434e-12,0.0147798007436,0.00725285163263,-2.01843098945e-14,0.00300533286117,0.00535628446916,-0.000251513565605,0.000536465089136,2.86772464424e-14,0.00227565398367,0.000697871728356,-0.00151796984712,-0.00895445837861,0.00796101608133,0.0023840901224,4.34738982343e-16,-0.00539029302376,-0.00252072304663,0.000355347758556,0.00238696898108,-4.07567795946e-16,-0.00102164774721,8.12772538278e-05,-0.00433234130502,-0.000908701003958,3.72633413437e-16,0.00119237222303,-0.00509413295721,-6.93107852987e-16,3.66811016352e-16,-0.0057312293724,0.00119054249852,5.12870814456e-07,-0.000349631344782,5.04607747362e-17,0.000493513455858,0.0019073989635,0.00246848349378,-4.32798183314e-15,0.00135626975398,0.000221886450079,0.000138378328665,-0.00248231751129,-8.53951572459e-17,0.00325709950418,7.76319611326e-18,0.000447460166887,-0.000187041449892,-0.0022881046595,-0.000969096886541,-1.55263922265e-17,4.81318159022e-16,-0.000965253704851,-0.000111349852686,-0.000571825097293,4.26975786229e-16,5.33145052714e-05,-1.17061692921e-05,-5.18030877716e-06,0.000192152517167,-2.79475060077e-16
0.116032934407,-5.55430191018e-17,-0.0035399638344,0.0115084571583,-0.0269802813347,0.200349202086,-1.13089335542e-15,0.161676816842,1.38137599142e-14,-0.101944694481,-0.108671930584,0.0340440058132,-0.0224387767484,0.0829071460978,-0.0617389537788,0.0860340446912,0.0465673149741,1.02463310141e-12,-2.98380393235e-09,0.0726173510952,0.145673154454,0.0786126180689,0.0597201018423,-0.140306798474,-0.0522371296574,0.226542148385,-0.194613868301,-0.0254208352938,-0.00648428820595,0.0149166550568,-7.60857509066e-16,0.140036220917,0.126794378198,-0.0910348497626,-0.183710244206,0.137493008648,0.112995916447,-0.239449684097,-2.0128506408e-16,0.150946539023,-0.0605990623777,-1.67450377506e-15,0.0944593656547,0.0632615824664,0.116240367342,-0.0545478198379,0.100116844795,-4.01124540977e-14,0.13869957562,-0.0205390874608,0.00757828635987,0.00866076459491,-0.157629041763,-1.83583941766e-15,-0.0108279036709,0.0793035013014,-0.00600553004672,0.026534163568,0.0418581528827,-0.0701309816313,-0.206398466698,0.00240358131569,0.0336149441488,-0.0206613990783,6.83134082403e-15,-0.250517622991,0.102367392405,0.224636694278,-0.275812965818,0.00703405506561,-0.00357837259875,0.248406022945,-7.96634970702e-13,-0.194977151926,0.0723352392491,0.133287192824,-0.147962051407,-0.0245246734452,0.0470018539751,0.257771488436,-0.0563115437402,0.184799764417,0.21905085764,0.139878287,-7.18286490131e-10,0.215556222867,0.11876002725,-2.19091073884e-10,-0.118097052094,-0.0488354269844,-0.0933128553747,0.143244590062,-0.0860429467262,-0.12839608335,0.179988683777,-4.46701479209e-15,-0.06060695228,0.0157303502354,0.00270031897026,-0.0195610057081,0.00488334282784,0.115544078303,-0.0467243660809,-1.93327650078e-14,-0.00968116639892,-0.0686636648972,0.0118913759699,0.0401568613537,0.0529960010111,-0.0769586393316,-0.0118918899899,6.8816585636e-16,-0.00476588021748,0.0048870294867,0.0358400232242,0.0505815025819,0.00107799234333,0.0353080355717,0.0210496368418,0.0187041424291,0.000681925978303,-1.5158073585e-15,-0.00535881325204,-0.0294304954883,0.0414691474483,0.0394213944675,-0.0308060346611,-0.0631989703708,0.0151031463223,0.0179782487214,0.00620719186606,-0.00754659683565,2.87409184407e-16,-0.0240793102331,0.00702516412503,0.00287136139146,-0.00374225673393,-0.0341476397301,1.34323674204e-11,-0.0178867354734,0.0141456384729,-0.0288258644475,0.030151181224,4.23528334985e-14,0.000126138994017,0.002686281883,3.06678034461e-13,-0.00610473167764,-0.0021267685366,0.00942263343067,0.00326344575867,-0.000359353066157,-0.00255365701559,0.0085272382853,0.0252999730692,0.00163942352263,-0.00347579261529,0.000212362747553,-8.33392015389e-16,-0.0101701927452,0.00045686917382,0.00574280429304,-0.00322824853151,0.00627667168367,0.0126281285587,-0.00694603282054,6.8110583202e-16,-0.00740378184408,0.00872442493936,-6.11419389918e-16,3.01123854362e-06,-0.0069900789054,-0.000660237151693,0.00418221868249,-0.00420751887589,0.000967614858307,1.16953193945e-15,0.00485733032187,-0.000861367768475,0.00526506711446,8.9789183632e-05,0.00142011477869,-0.00165316449458,0.00107849051019,0.00226043977776,0.000549031285797,0.00289272661978,-0.000129098181375,-4.88843848853e-16,0.000755236939295,-0.000330037987358,1.3710172422e-16,0.000186952748322,-3.64047697167e-05,0.000745998793118,-5.78462663429e-05,-9.76603212127e-05,-0.00037465272866,-1.41065280842e-16,-0.000186129389283
-5.79700959271e-16,0.116032934407,0.201056947063,0.00931726820327,-0.0224055091128,-4.81876422394e-15,0.161676816842,2.0611589663e-15,-0.101944694481,-2.125570184e-15,-0.0340440058132,-0.108671930584,-0.00938330172977,-0.0828668913526,-0.107868812925,-1.25601874509e-15,-1.02339763238e-12,0.0465673149741,0.0726173510953,2.98374930713e-09,0.144318254663,0.034566706044,3.86342103656e-09,0.169205449423,-0.226542148385,-0.0522371296574,-2.2359242485e-07,0.105726235863,-0.0498908724632,0.158487201656,0.140036220917,1.36873837606e-15,0.20857877081,-5.07635308209e-06,0.00705234813268,-0.182929221818,0.239449684097,0.112995916447,-0.150946539023,5.15289741575e-16,7.03692553338e-15,-0.0605990623778,-0.138226025785,0.0277767950597,0.0976374251311,0.00091427049492,1.29788603659e-14,0.100116844795,-0.0205390874608,-0.13869957562,0.00866076459491,-0.00757828635987,8.42176671386e-15,0.157629041763,0.0782136608962,1.57807483357e-14,0.000682336528814,0.0320714001885,-0.0701309816313,-0.0418581528827,6.76317785817e-16,0.195808134931,0.0293024171617,0.0704521453451,0.250517622991,1.51366361588e-15,0.201908811617,-0.0826442652029,-5.08848619805e-15,-0.299108265864,0.248406022945,0.00357837259874,-0.194977151926,7.67008780334e-13,0.0207226041152,0.123009731156,0.138192777939,-0.104086630828,0.257771488437,-0.0470018539753,-0.246609148432,-0.129672688246,0.119017827728,-0.11434524393,-0.215556222867,-7.18282567723e-10,-2.18969509383e-10,-0.11876002725,-0.0550567012813,0.202658707995,0.0164662992208,0.0344264855888,-0.12839608335,0.0860429467265,9.98373874301e-16,0.179988683777,-0.0157303502354,-0.06060695228,-0.0628701441918,0.0958168963244,0.0185706556213,0.0169057337227,5.05225488809e-16,-0.0467243660809,-0.0686636648972,0.00968116639893,0.10142259415,1.24394164177e-15,-0.00265774456891,0.0138412577753,1.07486219532e-15,0.0118918899899,0.0048870294867,0.00476588021747,0.0505815025819,-0.0358400232242,0.0286487472372,-0.0170295809591,2.73747675211e-16,0.0304958071331,1.88402811763e-15,-0.0006819259783,-0.0599480808592,-5.31392545999e-16,-0.0201289373451,0.0130253966796,-0.0631989703708,0.0308060346611,-2.57644870787e-16,0.00435339011554,-0.0234245966725,-0.00889601460299,0.0240793102331,5.15289741575e-16,0.00995755043068,0.0195451706084,-0.0266964904388,0.00661772811345,0.0178867354734,1.34325890862e-11,0.0288258644476,0.0141456384728,-4.05468615401e-14,-0.0301511812239,0.002686281883,-0.000126138994017,0.00610473167764,3.08626349594e-13,0.00326454759036,0.00113449048393,-0.0021776090927,-0.00934890672938,0.00852723828529,0.00255365701559,5.31392545999e-16,-0.0223809506049,-0.0101173698295,0.00718571198857,0.0101701927452,4.50878523878e-16,0.00574280429305,-0.000456869173816,-0.0119661492774,0.00455294123748,8.57474335589e-16,0.00967559798687,-0.00740378184408,-2.14620190216e-15,2.41542066363e-16,-0.00872442493936,0.0069900789054,3.01123854526e-06,0.00112878304182,4.10621512817e-16,0.00116265829574,0.00582584194271,0.00485733032187,-8.54253774704e-15,0.00526506711446,0.000861367768484,-0.0013879310322,-0.00115237825902,-9.66168265452e-17,0.0016329588197,-5.71649557059e-16,-0.000534647421953,-6.25363965967e-05,-0.00367502357981,0.000755236939296,-5.55546752635e-16,-8.0514022121e-18,0.000330037987358,-3.64047697166e-05,-0.000186952748322,6.68266383605e-16,6.47188720281e-05,0.000810330507322,-0.00022122055013,0.000186129389283,2.95889031295e-16
0.116367289614,2.53043921338e-16,-0.00698391331034,0.0227047706952,-0.0532287771131,0.16808004522,-5.48768200606e-16,0.102623994871,2.16771148559e-14,-0.0158023378659,-0.178275353585,0.0558488943848,-0.0350084941724,0.129349936209,-0.0963237803832,-0.0512802585393,0.149357822398,3.28573864303e-12,-5.53059217903e-09,0.134600169363,0.164797962904,0.0889333341127,0.0950392482653,-0.158727081514,-0.053713200149,0.232943575541,-0.20924745469,-0.0313705604888,-0.0080020689784,0.0184078856711,8.58178875132e-16,-0.00878958160535,0.0445190872929,0.0936515219075,-0.0645029575811,0.0482720239922,0.0367954044319,-0.0779731537603,-8.15030215139e-16,0.0130023254701,-0.267654773386,1.68574594843e-14,-0.0661400819231,-0.233962819265,-0.0274327512025,0.038194172148,0.0855972845965,5.05843561884e-14,-0.167384356632,0.0247868237885,-0.0717860749838,-0.0820399582576,-0.215093696574,-4.34514349053e-15,-0.088081823788,0.0710464148385,-0.0488532273103,0.215847646118,0.100226473292,-0.16792382065,-0.225327302224,-0.000480795638238,-0.00672409891886,0.00413296213105,2.32890686494e-15,0.0530952484778,0.0139076328468,0.0305191389029,0.0618697753697,0.000955646646637,0.000382510679327,-0.0265533993356,1.06233845415e-12,0.263393427352,-0.113088366584,-0.208380190335,0.272273279159,0.0927105055333,-0.045992749556,-0.252237273803,0.0186998010841,-0.0613678582653,-0.0990703481022,-0.0738547944896,2.0913797364e-10,-0.0627614245605,-0.237867443031,4.38778375511e-10,0.189731011804,0.0784574619773,0.143484563111,-0.227057274429,0.131406648717,0.196089274756,-0.0160100099092,7.93554009762e-15,-0.154382845981,0.0400695983919,-0.0629429231995,-0.02972289342,0.00742022575788,-0.0737663172597,-0.0255325081211,-1.19835707528e-14,-0.0138087581582,-0.0979386061295,0.0132095318963,0.00987574270816,0.0588705939078,-0.0854894844394,0.0840645316216,-2.83313101357e-16,0.0441890235041,-0.04531231399,0.0154549077628,0.0218117173645,0.000850569305717,0.0278591322919,0.0250480148561,0.0147581469743,0.034499709602,6.14566923461e-14,-0.000895123653631,-0.0789356915456,0.00692690956581,0.00658485768908,-0.00835607723032,-0.0171425982962,0.00953277398353,-0.0266631494659,-0.00920575118595,0.0111921935504,8.81273840066e-16,-5.9031582263e-05,-0.00225115702534,0.0230890919308,0.0187769111555,0.0109423349701,2.6804294787e-11,-0.0356963596249,-0.00428411214992,0.00873012811333,0.026007788259,-1.30895454561e-14,-0.00162767289731,-0.034663255796,6.3569065544e-13,-0.0126464548095,-0.0018409679529,-0.00593942865934,-0.0068266635454,0.00022651331134,0.00119480179432,-0.00398971339597,0.0073180134574,0.00485678732641,-0.0102970253203,0.000629124010169,-7.16786812341e-15,-0.0158112921461,0.00167862000179,0.0211001019658,-0.00652369230618,0.0126839908302,0.0135759184423,-0.0140366457005,-1.22828517419e-15,0.00438865684172,0.00113022474809,-1.09367122049e-16,2.1764984727e-06,-0.00505237158719,-0.00111827533419,0.00717294649194,-0.00712647654705,0.00163889570022,1.99584360629e-15,0.0062658051757,-0.000964893721244,0.00589786428817,-6.10519721329e-05,-0.000965604145086,0.00333928336455,-0.000733317421032,0.000589836116357,5.58810856538e-06,2.94425305415e-05,-1.31397731103e-06,1.476702055e-16,0.000412780669291,-0.00123075920615,-1.63884063872e-15,-0.00157623414048,0.000306935530066,-1.91861416722e-05,-4.12560782866e-05,-6.96515455922e-05,-0.000267203110611,-2.18434790383e-16,5.53863920268e-05
3.87580932727e-16,0.116367289614,0.173562093567,0.0385294853259,-0.00633753966176,-4.39258390424e-15,0.102623994871,7.42863454393e-16,-0.0158023378659,-1.93790466363e-15,-0.0558488943848,-0.178275353585,0.133707225338,-0.0397740404843,-0.102006567635,-6.45968221211e-17,-3.28389249697e-12,0.149357822398,0.134600169363,5.53053576632e-09,0.158093676878,0.0645811083158,4.57394913957e-09,0.20032454016,-0.232943575541,-0.053713200149,-2.21212967819e-07,0.11384443188,-0.0493599365796,0.172552991029,-0.00878958160535,1.04969835947e-15,0.0954936322669,7.4614109487e-07,0.086031383889,0.026887612539,0.0779731537603,0.0367954044319,-0.0130023254701,-3.55282521666e-16,-2.31579607304e-14,-0.267654773386,0.085781954903,-0.0385314963767,-0.135440970947,-0.184761969163,-1.66357003469e-14,0.0855972845965,0.0247868237885,0.167384356632,-0.0820399582576,0.0717860749838,1.35007358233e-14,0.215093696574,0.121069159852,2.27057829756e-14,0.195808847552,0.0937229889083,-0.16792382065,-0.100226473292,-5.01230966646e-15,0.222768279104,0.0052042510072,0.0343820995681,-0.0530952484778,-1.29193644242e-16,-0.0612092044904,0.0285146786085,5.08699974204e-16,-0.019848648445,-0.0265533993356,-0.000382510679333,0.263393427352,-1.0401501417e-12,0.0177734608592,-0.234232853044,-0.231172827074,0.174119089783,-0.252237273803,0.0459927495561,0.118390871284,0.0528443374354,-0.0366016696809,0.035164705388,0.0627614245605,2.09134284771e-10,4.38582820709e-10,0.237867443031,0.0903067470544,-0.320895968749,-0.0242813291742,-0.0507655555752,0.196089274756,-0.131406648717,3.63357124431e-16,-0.0160100099093,-0.0400695983919,-0.154382845981,0.0218300775501,-0.0526367432782,-0.0840247242625,-0.00587009116892,-1.10783549938e-14,-0.0255325081211,-0.0979386061295,0.0138087581582,0.100926258011,7.75161865454e-16,-0.0289994738486,-0.00437513018782,1.03354915394e-15,-0.0840645316216,-0.04531231399,-0.0441890235041,0.0218117173645,-0.0154549077628,0.0308684644019,-0.0128392703318,2.13169513e-15,0.0224577762337,6.05272223275e-14,-0.034499709602,-0.0650224558649,-2.85840937886e-15,0.0268420013832,-0.0370752514232,-0.0171425982962,0.00835607723033,-2.07921021202e-16,0.00824292215889,0.011000670878,0.0286853245606,5.90315822647e-05,6.45968221211e-17,-0.0310790310697,-0.000723751689315,0.000988562875186,-0.00656305690868,0.0356963596249,2.68045805328e-11,-0.00873012811326,-0.00428411214996,1.13690406933e-14,-0.026007788259,-0.034663255796,0.00162767289731,0.0126464548095,6.29415285543e-13,-0.00635161295082,-0.00273232745883,0.00423682906504,0.00442281565296,-0.00398971339597,-0.00119480179431,-1.64721896409e-15,-0.00546960099353,-0.0018308082496,0.0122596018568,0.0158112921461,-7.42863454393e-16,0.0211001019658,-0.00167862000178,-0.0128906628463,0.0118374105601,-8.801317014e-16,0.0166877707131,0.00438865684172,-9.73998958545e-16,7.26714248863e-16,-0.00113022474809,0.0050523715872,2.17649847361e-06,0.00186078035216,6.94415837802e-16,0.00199319179767,0.0099367515381,0.0062658051757,-1.10783549938e-14,0.00589786428816,0.000964893721253,0.000469563015098,0.00211120382617,-7.42863454393e-16,-0.00281904514265,9.68952331817e-17,0.000382031591193,-9.21836003044e-05,-0.000440863365934,0.000412780669291,-4.84476165909e-16,5.16774576969e-16,0.00123075920615,0.000306935530065,0.00157623414047,-4.68326960378e-16,-0.000243901818167,0.000137212748514,1.89126726368e-06,-5.5386392027e-05,8.4783329034e-17
0.116377370866,1.21241526203e-16,-0.0111744230564,0.0363281589953,-0.0851672762542,0.131067059201,-7.61658135485e-17,0.035124181788,2.68794796008e-14,0.0356681266362,-0.221874531407,0.069507349289,-0.0395307016061,0.146058659532,-0.10876636399,-0.148764184911,0.207439078583,4.562659034e-12,-2.62605232211e-09,0.0639108840844,0.103409480555,0.0558049973591,-0.003161113452,-0.0996000467721,-0.0227904577202,0.0988377288045,-0.137177014568,-0.056223989041,-0.0143428000903,0.0329915929493,2.73632879949e-15,-0.195406321348,-0.081830087109,0.252387235906,0.118562238326,-0.0887401031382,-0.0599573228773,0.127055582836,-8.24201318879e-16,-0.0262337408672,-0.161413623165,1.22819768741e-14,-0.087511657589,-0.139553312422,-0.0846627014935,0.0505356996503,0.12223927207,4.08367020364e-14,-0.146281218743,0.0216618020078,-0.144544187009,-0.16519079879,0.116214415759,1.3739106384e-14,0.0107551200445,-0.174301642366,0.00596516172901,-0.0263558046993,-0.0805383139124,0.134937416599,0.0836866347501,-0.012911427738,-0.180570933657,0.110987782865,-5.29207264643e-15,0.204349385433,-0.0780316537728,-0.171233948045,0.193180050674,-0.00536185338517,0.0030001959386,-0.208269742906,-6.32734293881e-13,-0.155434727543,-0.0241504782106,-0.0445004327064,-0.0190749159643,-0.0827240023072,0.0190910135096,0.10470052885,-0.0545245952181,0.178935466552,0.121865574016,0.0415180969133,3.11524567666e-10,-0.0934874695611,0.301605888765,-5.56347690284e-10,-0.217590688518,-0.0899779798949,-0.196377130311,0.275619193762,-0.162476659318,-0.242452955019,-0.00172478177061,-3.13026990568e-15,-0.0819597304958,0.0212723989145,-0.0132033043464,0.0126793737009,-0.00316536529602,-0.117487297929,-0.0980785346863,-3.60303662218e-14,-0.00683012081356,-0.0484426263764,-0.00252835762719,0.070624936082,-0.0112680688682,0.0163630317655,0.0496609097915,-8.79385919283e-16,0.0196673500633,-0.0201672965536,-0.0523235919599,-0.0738449828913,0.00078007453771,0.0255501810347,-0.0368767562337,0.0135349989719,0.0435635138114,7.86243554742e-14,0.00311971915386,-0.0376163009948,-0.024141929846,-0.0229497975779,0.00949840445166,0.0194860970623,0.0287232225685,-0.0608686218593,-0.0210155738948,0.0255503723545,5.01715526277e-16,0.0185913466936,0.000760881911505,-0.00277091610175,-0.00266165853524,-0.00369846468049,-1.59092881482e-11,0.0211875227442,0.00461595414544,-0.00940635297217,0.00616727795122,1.31891757388e-14,-0.00137192211101,-0.0292167346061,-3.53604312005e-13,0.00708667469462,-0.000695435511427,0.00926811308737,0.00530341704864,-0.000353460089466,-0.00236971345742,0.00791300914567,-0.0220584336614,-0.00195038126278,0.00413506375661,-0.000252642662511,-6.24919574561e-15,-0.0256816854649,0.001836576942,0.0230856064524,-0.00208649224764,0.00405675916248,0.00983561813046,-0.00448938286209,-9.4798898187e-16,0.00685928918674,-0.00710701015503,4.66231626449e-16,-3.50173660231e-06,0.00812868685183,-0.00135634447565,0.00848246733137,-0.00864362898826,0.00198779948122,-9.89653204513e-16,0.00243343434583,-0.000491079123305,0.0030016964151,-0.000113548648381,-0.00179589686807,0.00241755859199,-0.00136387407452,-0.00402210774182,-0.000594899259538,-0.00313439501295,0.000139883490239,-7.875934762e-17,-0.00015258454311,-0.00149398243382,1.10251393073e-16,-0.000455981283311,8.87919207555e-05,0.000321778640247,6.17970338352e-05,0.000104330297457,0.00040024065187,2.15811280403e-16,-0.00027518126439
-3.87614510044e-16,0.116377370866,0.142317869837,0.0738745101366,0.0128383213834,-2.71330157031e-15,0.035124181788,1.29204836681e-16,0.0356681266362,-9.36735065939e-16,-0.069507349289,-0.221874531407,0.223637209323,-0.00106945609414,-0.0827161889325,-6.78325392576e-16,-4.56199667475e-12,0.207439078583,0.0639108840845,2.62600777056e-09,0.111021101388,-0.0176971158251,2.40546841436e-09,0.10535182719,-0.0988377288045,-0.0227904577202,2.44465562438e-08,0.0761197350396,0.00545483644352,0.132094140999,-0.195406321348,-1.14669292555e-15,-0.100299511077,7.17385896622e-06,0.124248940972,0.258514020819,-0.127055582836,-0.0599573228773,0.0262337408672,5.16819346725e-16,-1.85731952729e-14,-0.161413623165,0.123363241435,-0.033877541887,-0.119081987411,-0.0794251237186,-1.43253339138e-14,0.12223927207,0.0216618020078,0.146281218743,-0.16519079879,0.144544187009,-8.81823010349e-15,-0.116214415759,-0.163419410236,-6.58944667074e-15,0.0309835089617,-0.0596746618338,0.134937416599,0.0805383139124,2.80616754667e-16,-0.044781123087,-0.114861521995,-0.1920827676,-0.204349385433,-1.71196408603e-15,-0.138683244517,0.0561706305821,5.89900832473e-15,0.224430620357,-0.208269742906,-0.00300019593859,-0.155434727543,6.22541204339e-13,-0.0908113776665,0.0290274253598,-0.0208500784385,0.0157042535006,0.10470052885,-0.0190910135098,-0.113697595319,-0.0920292129372,0.125253637285,-0.120336238544,0.0934874695611,3.11528971466e-10,-5.56099684353e-10,-0.301605888764,-0.0943878913772,0.391227138179,0.0386027746052,0.0807077442477,-0.242452955019,0.162476659319,8.72132647598e-16,-0.00172478177062,-0.0212723989145,-0.0819597304957,0.0608001042583,-0.0959703353932,-0.0312110140806,-0.0163491015667,2.33295483232e-14,-0.0980785346863,-0.0484426263764,0.00683012081359,0.00519123298305,5.16819346725e-16,0.0599323066161,0.0420732943474,-9.69036275109e-17,-0.0496609097915,-0.0201672965536,-0.0196673500633,-0.0738449828913,0.0523235919599,-0.0302942144801,-0.0160131656735,-1.04322811492e-15,0.0319742194403,7.69011037322e-14,-0.0435635138114,-0.00578836895892,-3.55918948545e-15,0.034059426234,-0.0366155022237,0.0194860970623,-0.00949840445165,-1.45355441266e-15,0.0220219836819,0.0199379115644,0.0688621843432,-0.0185913466936,8.72132647598e-16,0.00465831553576,0.00140584972192,-0.00192023157083,0.00128700354323,-0.0211875227442,-1.59103966432e-11,0.0094063529722,0.00461595414543,-1.3275796969e-14,-0.0061672779512,-0.0292167346061,0.00137192211101,-0.00708667469461,-3.5165720776e-13,0.00509568502563,0.00200129032815,-0.00339906518077,-0.00855031603021,0.00791300914568,0.00236971345742,2.42259068777e-16,0.0193940416115,0.00869083855852,-0.00747539553277,0.0256816854649,-7.71191368941e-16,0.0230856064524,-0.001836576942,-0.00931632418358,0.0025731464175,-4.03765114629e-17,0.00665505135315,0.00685928918674,-5.53158207041e-16,5.57195858188e-16,0.00710701015503,-0.00812868685183,-3.50173660357e-06,0.00238134850247,2.01882557314e-16,0.00235921677619,0.0118835544658,0.00243343434583,-4.95823560764e-15,0.00300169641509,0.000491079123308,0.00168521592712,0.00165326082287,0.0,-0.00231725199833,-6.46024183406e-16,-0.000495837397412,0.000321783474452,0.00510155427048,-0.00015258454311,9.69036275109e-17,-6.13722974236e-16,0.00149398243382,8.87919207547e-05,0.000455981283311,5.81421765065e-16,0.0005195355598,2.87586115365e-05,-8.77126071513e-05,0.00027518126439,-3.95689812336e-16
0.116377370866,9.71043957274e-17,-0.0157038909203,0.0510535034622,-0.119689187489,0.0932634323365,5.57208503572e-16,-0.035124181788,2.65268034401e-14,0.0356681266362,-0.221874531407,0.069507349289,-0.0315577451562,0.11660005434,-0.0868292506055,-0.186348947755,0.207439078583,4.56138204266e-12,2.6259918575e-09,-0.0639108840844,0.00212212317242,0.00114520523066,-0.154038591738,-0.00204394415815,0.0227904577202,-0.0988377288045,-0.0667482833859,-0.115548299121,-0.0294774597252,0.0678024187825,2.77696456443e-15,-0.195406321348,-0.122067138515,0.169190683706,0.176861026056,-0.132369157928,-0.0599573228773,0.127055582836,1.10537180967e-15,0.0262337408672,0.161413623165,-1.12082654127e-14,0.0620671382723,0.173828430728,0.038752215942,-0.0358421534261,0.12223927207,-4.76385818696e-14,0.146281218743,-0.0216618020077,-0.144544187009,-0.16519079879,0.116214415759,4.72272206901e-15,0.0644556933111,-0.0290840884845,0.0357493578283,-0.157950971969,-0.0805383139124,0.134937416599,0.212346073647,-0.00508845734067,-0.0711638953896,0.0437408325328,2.44442667772e-15,-0.204349385433,0.0800744323188,0.175716654978,-0.188251835118,0.00550222051226,-0.0030001959386,0.208269742906,-6.32333103631e-13,-0.155434727543,0.0305605909059,0.0563119084916,0.00196669307294,0.0752449230811,0.0190910135096,0.10470052885,-0.0317872540688,0.104317457366,0.160765986579,0.117590557877,3.1152379855e-10,-0.0934874695611,-0.301605888765,5.56345457755e-10,0.224560004444,0.0928599275363,0.185822291824,-0.276390260318,0.162476659318,0.242452955019,0.00172478177061,2.96487864147e-15,0.0819597304958,-0.0212723989145,0.0851861339412,0.0672170382491,-0.0167805197003,-0.0457382223863,-0.0980785346863,-3.75201274334e-14,-0.00683012081356,-0.0484426263764,-0.00891588392593,0.0200277501699,-0.0397351992526,0.0577018418316,-0.0496609097915,6.32776151124e-17,0.0196673500633,-0.0201672965536,-0.0523235919599,-0.0738449828913,0.000994547686168,0.0325749299597,-0.0289243230579,0.017256302134,-0.0435635138114,-8.03967264589e-14,-0.00350773163703,0.0334553229421,0.0271445623543,0.0258041596238,-0.00949840445166,-0.0194860970623,0.0692781711698,-0.0252365636041,-0.00871320642841,0.0105933661275,-2.10983244588e-16,0.0185913466936,0.000760438665685,-0.00277288284388,-0.00266272968653,-0.00369631016875,-1.59092018996e-11,0.0211875227442,0.00461595414544,-0.00940635297221,-0.00616727795117,1.43884866318e-14,0.00137192211101,0.0292167346061,3.58531079055e-13,-0.00708667469463,-0.00431643962119,-0.00376112145656,-0.00904623993133,0.000143438725227,0.00236971345742,-0.00791300914567,-0.00457892647422,-0.00939572975054,0.0199201778134,-0.00121707597674,-5.95933871342e-15,-0.0256816854649,0.001836576942,0.0230856064524,0.00320634571449,-0.00623408611752,-0.00640041430568,0.00689890581517,2.21751505978e-16,-0.00685928918674,-0.00710701015503,-4.5610656995e-16,-3.50173660322e-06,0.00812868685183,-0.00128228703483,0.00897236530692,-0.00817168026594,0.00187926411643,9.24221265326e-16,-0.00243343434583,0.000491079123305,-0.0030016964151,0.00012157566462,0.00192285296596,-0.0022579396244,0.00146028948322,-0.00319341582276,-0.000749275712965,-0.00394777102238,0.00017618327843,-6.1763812305e-17,-0.00015258454311,0.00149398243381,3.57286985943e-16,0.00045598128331,-8.87919207556e-05,-0.000418206006374,-4.75482542473e-05,-8.02744598133e-05,-0.000307955626577,3.95968754728e-16,0.00027518126439
-1.93807255022e-16,0.116377370866,0.110710000008,0.111883099095,0.0331980399103,-2.26108464192e-15,-0.035124181788,6.46024183406e-17,0.0356681266362,-4.68367532969e-16,-0.069507349289,-0.221874531407,0.232581100154,0.0317598289413,-0.0418814775098,-8.23680833843e-16,-4.5625134941e-12,0.207439078583,-0.0639108840843,-2.62601423887e-09,0.0312562175535,-0.14311634911,-1.08991262454e-09,-0.0477351006694,0.0988377288045,0.0227904577202,4.31025382431e-07,0.0407148620496,0.0961760324448,0.111199380307,-0.195406321348,-2.81020519782e-15,-0.186351719632,6.52861501011e-06,0.0474550333786,0.235262293241,-0.127055582836,-0.0599573228773,-0.0262337408672,-7.10626601747e-16,1.53592249605e-14,0.161413623165,-0.0831522530323,0.0315581617391,0.110929199984,0.128994360418,1.3635147921e-14,0.12223927207,-0.0216618020077,-0.146281218743,-0.16519079879,0.144544187009,-6.58944667074e-15,-0.116214415759,-0.0680389509785,-1.34373030148e-14,-0.150878612207,-0.0619135870581,0.134937416599,0.0805383139124,4.11032886692e-15,-0.193866466871,-0.0527119564572,-0.108312282305,0.204349385433,7.75229020087e-16,0.13340400766,-0.053646327358,-4.81288016637e-15,-0.228216405425,0.208269742906,0.00300019593859,-0.155434727543,6.14433600837e-13,0.087751621613,-0.014035749893,0.0345721327693,-0.0260396879904,0.104700528851,-0.0190910135098,-0.190657208682,-0.0869894372407,0.0630659761162,-0.0605900356312,0.0934874695611,3.11518207088e-10,5.56102236149e-10,0.301605888764,0.102269819003,-0.391471746635,-0.0341458809018,-0.0713896098879,0.242452955019,-0.162476659319,-5.81421765065e-16,0.00172478177062,0.0212723989145,0.0819597304957,0.0506822118144,-0.0499549987251,0.094331630316,-0.0136284080215,2.42380198312e-14,-0.0980785346863,-0.0484426263764,0.00683012081359,-0.0590990752403,-8.69104409238e-16,0.0395918044113,0.0181323110124,6.21798276528e-16,0.0496609097915,-0.0201672965536,-0.0196673500633,-0.0738449828913,0.0523235919599,-0.0209081700625,-0.0191347346524,7.42927810917e-16,0.0373258887248,-7.85888419113e-14,0.0435635138114,-6.08983876065e-05,1.87750778302e-15,-0.0346885250728,0.0364821497907,-0.0194860970623,0.00949840445166,-1.94009137579e-15,0.0355395030651,-0.034384912739,0.0563835970222,-0.0185913466936,-1.61506045851e-17,0.00465976133491,0.00140420457501,-0.00191798448638,0.00128691639219,-0.0211875227442,-1.59118178964e-11,0.00940635297219,0.00461595414545,-1.20160498114e-14,0.0061672779512,0.0292167346061,-0.00137192211101,0.0070866746946,3.52050878747e-13,-0.00827429044241,-0.00372786519062,0.0055193467408,0.00134486710414,-0.00791300914568,-0.00236971345742,-3.87614510044e-16,0.00196596704712,-0.000443644263145,-0.0224383425544,0.0256816854649,-5.6527116048e-16,0.0230856064524,-0.001836576942,0.00607847886853,-0.00587805961527,-4.52216928384e-16,-0.0081366576121,-0.00685928918674,8.45635561951e-16,-2.34183766485e-16,0.00710701015503,-0.00812868685183,-3.50173660411e-06,0.00170616723506,4.03765114629e-18,0.00248585412241,0.0119735171891,-0.00243343434583,4.5706210976e-15,-0.00300169641509,-0.000491079123309,-0.00187509450714,-0.00157204199996,-3.23012091703e-16,0.00222611442493,2.74560277948e-16,0.000655449006398,0.000102875093207,0.00509264750587,-0.000152584543109,-3.87614510044e-16,5.16819346725e-16,-0.00149398243382,-8.87919207538e-05,-0.00045598128331,-1.93807255022e-16,-0.000489525104844,-0.000158540763195,0.000116909175096,-0.00027518126439,9.69036275109e-17
0.116367289614,1.93837233555e-16,-0.0201386276012,0.0654708759235,-0.15348909305,0.0582888014151,1.17270615072e-15,-0.102623994871,2.19475008362e-14,-0.0158023378659,-0.178275353585,0.0558488943848,-0.0108782186485,0.0401930137677,-0.02993076877,-0.165031122304,0.149357822398,3.28315396964e-12,5.53053450889e-09,-0.134600169363,-0.0638019314661,-0.0344307562311,-0.245482772352,0.0614515797612,0.053713200149,-0.232943575541,-0.0372427905404,-0.176255437156,-0.0449647119768,0.103424672225,2.70510425893e-15,-0.00878958160535,-0.045293488002,-0.0920503709408,0.0656249737572,-0.0491117959315,0.0367954044319,-0.0779731537603,1.59287068724e-16,-0.0130023254701,0.267654773386,-2.00562881593e-14,0.121566571205,0.159300395748,0.127440812023,-0.0702015239936,0.0855972845965,-4.98964326527e-14,0.167384356632,-0.0247868237885,-0.0717860749838,-0.0820399582576,-0.215093696574,-1.77109387565e-14,-0.0262725345759,0.238191628391,-0.014571656767,0.0643817816422,0.100226473292,-0.16792382065,0.00790734131634,0.0137007345137,0.191609671147,-0.117772734213,2.05260937584e-15,-0.0530952484778,0.0256454386627,0.0562767735813,0.033552248081,0.00176219617885,-0.000382510679327,0.0265533993356,1.06821605665e-12,0.263393427352,-0.0937317490004,-0.17271307639,0.279717739412,0.148599453202,-0.045992749556,-0.252237273803,0.0338789693226,-0.111181919972,-0.073100912935,-0.0230697587325,2.09137123943e-10,-0.0627614245605,0.237867443031,-4.38777411291e-10,-0.172478545201,-0.0713232315932,-0.169612952245,0.225148507464,-0.131406648717,-0.196089274756,0.0160100099092,-3.68165608667e-15,0.154382845981,-0.0400695983919,0.0815401765308,0.0503646745457,-0.0125733807295,0.0315958945555,-0.0255325081211,-1.28874643271e-14,-0.0138087581582,-0.0979386061295,-0.00124674060683,-0.104635990508,-0.00555631800956,0.00806865924883,-0.0840645316216,2.4322002774e-15,0.0441890235041,-0.04531231399,0.0154549077628,0.0218117173646,-0.000675532442723,-0.0221260602314,-0.0315381930731,-0.0117210990434,-0.034499709602,-6.25181593754e-14,-0.00736077751407,-0.009599149612,0.0569613370925,0.0541485773664,0.00835607723031,0.0171425982962,0.0303469041388,-0.0083756081472,-0.00289177258421,0.00351576724296,1.96969337927e-15,-5.90315822638e-05,-0.00593519053326,0.00674253306944,0.00987404721177,0.0288495392352,2.68078057141e-11,-0.0356963596249,-0.00428411214992,0.00873012811319,-0.026007788259,-1.00020771026e-14,0.00162767289731,0.034663255796,-6.33565691398e-13,0.0126464548095,0.0015493740517,0.00625982873536,0.00660890386525,-0.000238732480275,-0.00119480179432,0.00398971339597,0.0114023204042,0.00311708790443,-0.00660863466326,0.000403772022675,-6.54457975926e-15,-0.0158112921461,0.00167862000179,0.0211001019658,0.00442565859517,-0.00860479164313,-0.0200117367364,0.0095224297493,4.15982515886e-16,-0.00438865684172,0.00113022474809,-6.90601705076e-16,2.17649847244e-06,-0.0050523715872,-0.00108432793535,0.00739751220445,-0.00691013864328,0.00158914386873,-1.48837366814e-15,-0.0062658051757,0.000964893721244,-0.00589786428817,0.000167927923543,0.00265596496522,-0.00121403177401,0.00201704330761,2.99969348181e-05,0.000109880168555,0.000578934747048,-2.58370156609e-05,4.4824358712e-17,0.000412780669291,0.00123075920615,1.703883502e-15,0.00157623414048,-0.000306935530066,0.000279196891315,2.83507799517e-06,4.78638718063e-06,1.83619406064e-05,-3.48382550872e-17,-5.53863920267e-05
-3.06834905075e-16,0.116367289614,0.0817648870453,0.14891599062,0.0527922054449,-1.2273396203e-15,-0.102623994871,-7.42863454393e-16,-0.0158023378659,-9.04355509696e-16,-0.0558488943848,-0.178275353585,0.160776048725,0.0595842964309,0.0215803155701,-1.93790466363e-16,-3.2854589699e-12,0.149357822398,-0.134600169363,-5.53054085332e-09,-0.0219311997709,-0.218483078782,-3.3149321259e-09,-0.145184084434,0.232943575541,0.053713200149,7.71754722269e-07,0.0273768328521,0.172204027266,0.12152273342,-0.00878958160535,-2.40623162401e-15,-0.0965823323002,-6.94099163671e-07,-0.0853792529976,-0.025012252408,0.0779731537603,0.0367954044319,0.0130023254701,3.22984110606e-16,2.48697765166e-14,0.267654773386,-0.173374645887,0.0435838653097,0.153200409801,0.0767839510907,1.3201975521e-14,0.0855972845964,-0.0247868237885,-0.167384356632,-0.0820399582576,0.0717860749838,1.13367422823e-14,0.215093696574,0.230851943029,1.91529577589e-14,-0.01351421476,0.0911459889194,-0.16792382065,-0.100226473292,1.51928697653e-15,-0.047494573842,0.117869375997,0.186241764467,0.0530952484778,-7.75161865454e-16,-0.0410094297065,0.0203618607161,3.71431727197e-15,-0.0534531922239,0.0265533993356,0.000382510679329,0.263393427352,-1.03195038259e-12,0.080948532145,-0.249468479559,-0.211564609482,0.159350204348,-0.252237273803,0.0459927495561,0.0670135835379,0.0562088294698,-0.078117384515,0.075050532832,0.0627614245605,2.09143885474e-10,-4.38576845503e-10,-0.237867443031,-0.0707951200065,0.320290443146,0.0353143215923,0.0738324969444,-0.196089274756,0.131406648717,1.37268247007e-15,0.0160100099092,0.0400695983919,0.154382845981,0.00697213661183,0.0149359412767,0.100332364531,-0.00187480220625,-1.10460565827e-14,-0.0255325081211,-0.0979386061295,0.0138087581582,-0.0445757988917,-6.78266632272e-16,-0.0750341716284,-0.0585584498168,1.55032373091e-15,0.0840645316216,-0.04531231399,-0.0441890235041,0.0218117173645,-0.0154549077628,-0.0359187250419,0.00937251660188,3.87580932727e-16,-0.0156224772189,-6.20775460584e-14,0.034499709602,-0.0594348108747,1.61492055303e-17,-0.0402275960819,0.0342378568666,0.0171425982962,-0.00835607723032,-1.32423485348e-15,0.0151805565913,-0.0168795847862,0.022280904148,5.90315822619e-05,1.61492055303e-16,-0.0190622849585,-0.0143973749674,0.0196651843497,-0.00728741188484,0.0356963596249,2.68054162542e-11,-0.00873012811328,-0.00428411214989,1.24671866694e-14,0.026007788259,0.034663255796,-0.00162767289731,-0.0126464548095,-6.30271193436e-13,0.00616667978123,0.00263187429778,-0.00411346981219,-0.0048420329931,0.00398971339597,0.00119480179431,5.16774576969e-16,-0.00954189006041,-0.00396519517736,0.00876332087987,0.0158112921461,-4.84476165909e-16,0.0211001019658,-0.00167862000178,0.0189567320448,-0.00564569038768,-3.39133316136e-16,-0.0139119969447,-0.00438865684172,-4.30981922589e-16,5.08699974204e-16,-0.00113022474809,0.00505237158719,2.17649847307e-06,0.00155128210977,1.85715863598e-16,0.00205124144739,0.00997798980414,-0.0062658051757,1.15244767965e-14,-0.00589786428816,-0.000964893721252,-0.00299770713407,-0.00102981334247,-6.45968221211e-16,0.00160559115439,-8.07460276514e-17,-0.00039574266146,5.57042771685e-05,-0.000434846225308,0.000412780669291,-1.29193644242e-16,-2.26088877424e-16,-0.00123075920615,-0.000306935530067,-0.00157623414047,1.93790466363e-16,0.000162980382645,0.000212737228332,-8.06181040869e-05,5.53863920266e-05,3.35096014753e-16
0.116032934407,4.30796042622e-16,-0.0240049790903,0.0780404225497,-0.182956979107,0.0295450759182,2.01346006422e-15,-0.161676816842,1.46195222021e-14,-0.101944694481,-0.108671930584,0.0340440058132,0.0182506324271,-0.0674327244297,0.0502155248696,-0.105777086317,0.0465673149741,1.02302433284e-12,2.98374437249e-09,-0.0726173510953,-0.0400914145844,-0.0216353594757,-0.216994489748,0.038614518336,0.0522371296574,-0.226542148385,-0.0301793651856,-0.163929129947,-0.0418201546217,0.0961917363029,9.24335359025e-16,0.140036220917,0.0440304395451,-0.262162556734,-0.0637949640695,0.0477520289306,0.112995916447,-0.239449684097,-1.55956006875e-15,-0.150946539023,0.0605990623777,-1.73960205997e-15,-0.0162292939346,-0.168641642113,0.0249130391224,0.00937199393099,0.100116844795,4.33257429416e-14,-0.13869957562,0.0205390874609,0.00757828635987,0.00866076459492,-0.157629041763,-1.62832879328e-16,-0.0293259552177,0.0292809105955,-0.0162651895105,0.0718642976688,0.0418581528827,-0.0701309816313,-0.0395301794221,0.0125497912075,0.175513317468,-0.107879123038,-4.23616576379e-15,0.250517622991,-0.114326332284,-0.250879589192,0.246961951269,-0.00785579956509,0.00357837259875,-0.248406022945,-7.99217018709e-13,-0.194977151926,0.0427979909912,0.0788609277642,-0.159321932321,-0.109808464122,0.0470018539751,0.257771488436,-0.0702147349389,0.230426403072,0.195264440836,0.093362295407,-7.1828715176e-10,0.215556222867,-0.11876002725,2.19092352224e-10,0.11072266374,0.045785974018,0.104481164984,-0.142428707371,0.0860429467261,0.12839608335,-0.179988683777,3.11971524866e-15,0.06060695228,-0.0157303502354,-0.0784978412656,-0.0645694751328,0.0161195639934,0.0563314937599,-0.046724366081,-1.95775166021e-14,-0.00968116639892,-0.0686636648972,-0.00506951134432,-0.0941945492764,-0.0225931657538,0.0328088773008,0.0118918899899,1.93510135254e-16,-0.00476588021747,0.0048870294867,0.0358400232242,0.0505815025819,-0.000567698185895,-0.0185941095646,-0.0399707941806,-0.00985007712856,-0.000681925978301,7.54427472658e-16,-0.00274440275591,-0.0574669767024,0.0212375459248,0.0201888325886,0.0308060346611,0.0631989703708,-0.020462105995,-0.0132698032707,-0.00458154830333,0.00557016742424,-1.25628731843e-15,-0.0240793102331,-2.1197702209e-05,-0.0283943065565,-0.0207705493679,0.000103036952115,1.34364672574e-11,-0.0178867354734,0.0141456384729,-0.0288258644477,-0.0301511812238,4.48965957298e-14,-0.000126138994019,-0.002686281883,-3.01595486105e-13,0.00610473167763,-0.00514389607709,-0.0014337095013,-0.00869311213471,5.4677698019e-05,0.00255365701559,-0.00852723828529,0.00384888837557,0.0107764546342,-0.0228474954272,0.0013959281927,-3.11001679378e-15,-0.0101701927452,0.00045686917382,0.00574280429304,0.0041166854334,-0.0080040562671,-0.00990280606443,0.00885763033829,-4.27742263411e-16,0.00740378184408,0.00872442493936,-1.09368717532e-15,3.01123854499e-06,-0.0069900789054,-0.000632222274943,0.00436754012019,-0.00402898738545,0.000926557473203,-9.79189948796e-16,-0.00485733032187,0.000861367768474,-0.00526506711446,-8.31353468821e-05,-0.001314877026,0.00178547748872,-0.000998568859287,0.00294719680205,0.000421095787288,0.00221866226001,-9.90156694699e-05,1.77703480256e-16,0.000755236939296,0.000330037987359,-1.73646531234e-16,-0.000186952748322,3.64047697167e-05,0.000391469533889,-0.000110233980278,-0.000186105112796,-0.00071395206836,1.25757710218e-16,0.000186129389284
-3.37152467632e-16,0.116032934407,0.0582464541572,0.181047452907,0.0695836522579,-6.28009372544e-16,-0.161676816842,-1.44925239818e-15,-0.101944694481,-1.38484118048e-15,-0.0340440058132,-0.108671930584,0.0362612011509,0.0846750010611,0.100528196652,7.08523394665e-16,-1.02400953894e-12,0.0465673149741,-0.0726173510952,-2.98375550671e-09,-0.00197334236054,-0.195456570525,-2.54723809182e-09,-0.111561350245,0.226542148385,0.0522371296574,7.25673397729e-07,0.0230641943889,0.161921757638,0.109702855631,0.140036220917,-1.12719630969e-16,0.031577239611,-6.40356094524e-06,-0.150905703834,-0.230755901149,0.239449684097,0.112995916447,0.150946539023,-2.25439261939e-16,-2.74552815433e-15,0.0605990623778,0.0145959242476,-0.0206457790221,-0.0725713927476,-0.153316636356,-1.35632160421e-14,0.100116844795,0.0205390874609,0.13869957562,0.00866076459492,-0.00757828635987,7.47170125283e-15,0.157629041763,0.0453582825535,1.67469166012e-14,0.0633277551371,0.0328426350505,-0.0701309816313,-0.0418581528827,-2.03801118494e-15,0.00244792608368,0.109908952097,0.179100508227,-0.250517622991,-2.57644870787e-16,-0.171002830003,0.0678663586342,3.83246745296e-15,0.321271204724,-0.248406022945,-0.00357837259875,-0.194977151926,7.58415921323e-13,-0.0756794535408,0.146258549334,0.108271600417,-0.0815500366251,0.257771488437,-0.0470018539753,-0.199550690183,-0.132754357499,0.157043687381,-0.150878226262,-0.215556222867,-7.18290868719e-10,2.18956530523e-10,0.11876002725,0.0467166581686,-0.202399882341,-0.0211822376817,-0.0442862110246,0.12839608335,-0.0860429467265,-3.60702819102e-15,-0.179988683777,0.0157303502354,0.06060695228,-0.05452011937,0.0578416751511,-0.0850363161591,0.0146604184299,2.4637290769e-15,-0.0467243660809,-0.0686636648972,0.00968116639894,-0.0692883543729,-1.77130848666e-15,-0.0566681626363,-0.0497295678535,-5.15289741575e-16,-0.0118918899899,0.0048870294867,0.00476588021747,0.0505815025819,-0.0358400232242,-0.0433720372575,0.00692277177973,-6.44112176968e-16,-0.0105685010112,-2.38321505478e-15,0.000681925978304,-0.0622074652968,-3.5265141689e-15,0.00699089668367,-0.0158103162812,0.0631989703708,-0.0308060346611,6.44112176968e-16,-0.0075009952098,0.0242145945871,0.00204726413217,0.0240793102331,-3.22056088484e-16,0.0329416902066,-0.00660803806899,0.00902583193895,0.00523227186219,0.0178867354735,1.34303668992e-11,0.0288258644476,0.0141456384729,-4.0160394234e-14,0.0301511812239,-0.002686281883,0.000126138994018,-0.00610473167766,-3.07950031808e-13,-0.0078757107405,-0.00363921105721,0.00525347505138,-0.00110394796997,-0.00852723828529,-0.00255365701559,3.22056088484e-16,-0.00099298471297,0.0010925894984,0.0255484404333,0.0101701927452,0.0,0.00574280429305,-0.000456869173819,0.0093974013602,-0.00717489752852,-1.12719630969e-16,-0.0108510318392,0.00740378184408,4.1263436337e-16,-2.41542066363e-16,-0.00872442493936,0.0069900789054,3.01123854394e-06,0.000873371569582,-1.5297664203e-16,0.001210563403,0.00585987356164,-0.00485733032187,8.50228073598e-15,-0.00526506711446,-0.000861367768482,0.00123053492932,0.00121970299994,-2.25439261939e-16,-0.00170850551316,-1.12719630969e-16,0.000419451449536,-0.000243951063542,-0.00368240483094,0.000755236939296,-2.25439261939e-16,2.57644870787e-16,-0.000330037987358,3.64047697167e-05,0.000186952748321,-9.66168265452e-17,-0.000418725658322,0.000720594714992,-0.000123185531144,-0.000186129389282,4.50878523878e-16
0.111879446793,9.39733328933e-16,-0.0261361831676,0.0849689879155,-0.199200220077,0.00976795309641,2.85341622677e-15,-0.201293124101,7.04225893401e-15,-0.189218239293,-0.0413393756657,0.012950519402,0.046942164256,-0.17344264858,0.129158560726,-0.0414813055558,-0.0717004902653,-1.57616631571e-12,-4.12890346601e-09,0.100487178328,0.0621802721223,0.03355562665,-0.105698321239,-0.0598896516389,0.0266255299079,-0.115469681944,-0.0183094058168,-0.0379686325877,-0.00968617212879,0.0222795588242,8.67155661294e-16,0.0649591777042,0.0360177616035,-0.197128869386,-0.0521855296267,0.0390616138028,0.0887947789006,-0.188165045479,-1.09065302417e-15,-0.175895794096,-0.113145336521,1.45832003326e-14,-0.130358511105,-0.302305787113,-0.0992516757755,0.0752786399611,0.134985622254,8.59416869462e-14,-0.282781185434,0.0418751641737,0.0340834829611,0.038951948829,0.225028725807,3.01914268734e-14,0.09912152399,-0.293066752484,0.0549762270418,-0.242900824629,-0.151512116157,0.253850031675,0.113707134726,0.00199849715774,0.0279496973539,-0.0171792595754,1.3519978793e-15,-0.21247825921,0.0746498443841,0.163812849745,-0.253146242018,0.00512947632737,-0.00341946565254,0.237374907142,5.71166910701e-13,0.141030257028,-0.0449229475935,-0.0827764398109,0.120611228802,0.0533629789789,-0.0258979970576,-0.142031955859,0.0117885300368,-0.0386868735763,-0.0793482116073,-0.0641424162878,-1.28284382144e-10,0.038498072753,0.0641470330264,-1.18324848888e-10,-0.0382327044923,-0.0158099665824,-0.0448892503495,0.0533955356536,-0.0346130606199,-0.0516507347255,-0.0840899570998,1.01271702268e-15,-0.00650590436209,0.00168858770097,-0.0935002885443,-0.0690628590248,0.0172413229831,0.0247744058658,-0.0603614284867,-2.18660624384e-14,-0.000458586596684,-0.00325252506819,-0.00912627733391,-0.00731762523653,-0.0406728543473,0.0590634664613,0.0658605758382,-1.40202330361e-15,-0.0478250636709,0.0490407827511,0.00556312636764,0.00785131440814,0.00150658193552,0.049345850089,-0.0084642291525,0.0261405596036,-0.0373084364733,-6.83065721427e-14,0.000566426929114,-0.0146607354139,-0.00438329173594,-0.0041668441051,0.00798508981835,0.0163815129208,-0.00850297751248,0.0114298157785,0.00394627199958,-0.00479780944866,-6.84612415707e-16,0.0126577593993,-0.00145381832979,-0.0144400414281,-0.00936244003596,0.00706666259689,2.94065851195e-12,-0.00391209531912,0.00725285163262,-0.0147798007436,0.00300533286122,2.37154311639e-14,-0.000251513565605,-0.00535628446916,-2.31284530195e-14,0.000536465089129,-0.00508340588235,-0.000384956425268,-0.00788433643137,1.46811687793e-05,0.0023840901224,-0.00796101608133,-0.000442828504988,0.0025321295083,-0.00536844624004,0.000327999429142,-3.67596065421e-16,-0.00238696898108,-8.1277253827e-05,-0.00102164774721,0.00149379587281,-0.00290438179233,-0.000138884684847,0.00321411287218,-1.8502043506e-16,0.00509413295721,0.0057312293724,2.17366931735e-16,5.12870814514e-07,-0.00119054249852,-0.000273754222888,0.000851210738092,-0.00174456414214,0.000401202284529,-3.27473997862e-15,-0.00246848349378,0.000221886450075,-0.00135626975398,-0.000202649297046,-0.00320512170832,0.000742333351663,-0.00243409434104,0.00126906467052,0.00036600531872,0.00192840254432,-8.60618005611e-05,1.75216338165e-16,-0.000969096886542,-0.00096525370485,-6.5229590326e-16,-0.000571825097293,0.000111349852687,-5.09750158196e-05,-2.98421322855e-06,-5.03816824939e-06,-1.93278442937e-05,-1.55172988955e-16,0.000192152517167
-3.38608780471e-16,0.111879446793,0.0414203420272,0.19910770578,0.0794949453076,-1.86316706718e-16,-0.201293124101,-2.0562765705e-15,-0.189218239293,-2.23580048062e-15,-0.012950519402,-0.0413393756658,-0.0911274225524,0.106526975717,0.176171359631,1.04803147529e-15,1.57661197225e-12,-0.0717004902653,0.100487178328,4.12886558789e-09,0.0862918732483,-0.106874791216,6.78390137373e-10,0.0297113348933,0.115469681944,0.0266255299079,1.48045883246e-07,0.0114297903362,0.0330339370876,0.0338403748087,0.0649591777041,1.16059781893e-15,0.0289008384901,-4.88949750181e-06,-0.111919608761,-0.176195777921,0.188165045479,0.0887947789006,0.175895794096,-4.96844551249e-16,-2.31343244175e-14,-0.11314533652,0.178285500957,-0.0599644966161,-0.210779502686,-0.209977236052,-2.58281534688e-14,0.134985622254,0.0418751641737,0.282781185434,0.038951948829,-0.0340834829611,-1.66132396824e-14,-0.225028725807,-0.327497381765,-2.02774682478e-14,-0.149718962235,-0.167529374615,0.253850031675,0.151512116157,3.47014866263e-15,-0.117507012482,0.0125218588376,0.00670254348583,0.21247825921,6.21055689061e-16,0.193649788701,-0.0810757732155,-3.54001742765e-15,-0.229004494971,0.237374907142,0.00341946565254,0.141030257028,-5.51435346317e-13,0.022318518498,-0.105795095358,-0.0964298903579,0.0726308751321,-0.142031955859,0.0258979970577,0.0980528838765,0.0395906709943,-0.0211995031844,0.0203672206858,-0.038498072753,-1.28282553777e-10,-1.18273721214e-10,-0.0641470330263,-0.0135896479457,0.076316102589,0.0102925310981,0.0215188410173,-0.0516507347256,0.03461306062,1.80106149828e-15,-0.0840899570998,-0.00168858770098,-0.00650590436208,-0.0416151981933,0.0336612600847,-0.106924688476,0.0111902949885,2.04637849546e-14,-0.0603614284867,-0.00325252506819,0.000458586596698,-0.0698956850609,-1.31198014314e-15,0.0196643937821,0.00274145131537,-1.10237384808e-15,-0.0658605758382,0.0490407827511,0.0478250636709,0.00785131440814,-0.00556312636764,0.00294387556141,-0.0264827775903,8.4715877586e-16,0.0498221921381,-6.82773098161e-14,0.0373084364733,-0.00687067692546,-1.98349660694e-15,0.00937944112909,-0.0108006352255,0.0163815129208,-0.00798508981835,3.1052784453e-17,-0.00556660430834,-0.00143224025312,-0.0144393544814,-0.0126577593993,9.31583533591e-17,0.0140221554715,-0.00723923765654,0.00988797912051,0.00119241388091,0.00391209531912,2.93753130369e-12,0.0147798007436,0.00725285163262,-2.00756251489e-14,-0.00300533286118,-0.00535628446916,0.000251513565604,-0.00053646508915,-2.88790895413e-14,-0.00711125389633,-0.00332450327251,0.00474354584105,-0.00200716271902,-0.00796101608133,-0.0023840901224,-1.55263922265e-17,0.000978442192837,0.000817287828682,0.00582325227598,0.00238696898108,3.86219006635e-16,-0.00102164774721,8.12772538273e-05,0.000144217490309,-0.00336617451427,-4.96844551249e-16,-0.00310881660298,0.00509413295721,-1.16447941699e-17,1.55263922265e-16,-0.0057312293724,0.00119054249852,5.12870814574e-07,0.000973038974082,-2.63948667851e-16,0.000245432729709,0.00173116329225,-0.00246848349378,4.8597607669e-15,-0.00135626975398,-0.000221886450079,0.00377221796266,0.000809595777074,-1.24211137812e-16,-0.00138009865183,-2.32895883398e-16,-0.000518993255944,-3.27765867578e-06,-0.00228062782913,-0.000969096886543,2.32895883398e-16,3.1052784453e-17,0.00096525370485,0.000111349852687,0.000571825097292,-9.31583533591e-17,-4.37351682756e-05,-2.97202925355e-05,1.44998530444e-05,-0.000192152517167,-3.95923001776e-16
0.0909642989165,6.34902370806e-16,-0.0232414211264,0.0755580881173,-0.177137425675,1.20646360593e-15,2.6133715929e-15,-0.194704472222,2.56718035904e-15,-0.230284287042,-3.76156498314e-15,4.5797659857e-16,0.0630920473314,-0.233113491184,0.173593999249,1.83992357004e-15,-0.176910621647,-3.88895894694e-12,-1.27540828397e-08,0.310402911086,0.193071286179,0.104191052479,-4.24605354879e-09,-0.185958860295,-9.96985147771e-16,-5.16611761675e-16,2.60649434329e-07,0.227976398764,0.0581595173703,-0.13377394024,4.32152997545e-15,-0.291156860568,-0.1130585553,-3.40208225246e-06,0.163808641194,-0.122595934586,-1.86505490016e-15,7.175574581e-15,1.96423250158e-15,0.229381320162,0.117945102175,-1.32714768077e-14,0.12728365802,0.0476067366955,0.167341091003,-0.0735029925074,-0.107770170396,3.08719006123e-15,-7.01566709017e-17,-1.0496441026e-14,-2.75525531497e-17,-3.61181855312e-15,-0.128882673911,1.18897031143e-15,-0.0525726467924,7.53169399641e-15,-0.0291586090478,0.128831143275,-4.9976903607e-16,-1.20057476609e-16,-2.36696857209e-16,-0.000397310881036,-0.0055565347378,0.00341531972214,-1.7748877611e-15,0.0755267595563,-0.0253181352868,-0.0555585336551,3.21907725805e-15,-0.00173970591203,3.37778986194e-16,1.92321927352e-15,-1.3278651813e-13,-0.0329476261406,0.0098987433481,0.0182397366361,-0.011306084854,0.0085157292437,-3.97275292736e-15,-1.56117577838e-14,-0.00328826892483,0.0107912389237,0.00257089900143,-0.0024699667185,1.46890672913e-11,-0.00440813267251,-0.010943151793,2.01789601888e-11,0.0067427501974,0.00278825830025,-0.00219160553808,-0.00458204216866,1.32295173478e-14,1.3478196227e-15,0.00900773272059,2.13894132716e-16,-2.88716243079e-16,-3.97194181001e-16,0.00132439425614,0.000979213625702,-0.000244457565595,-0.000356128603268,-0.00205796273984,-7.35652460018e-16,1.66065467773e-16,-1.02176139611e-16,-0.000666302767215,-1.26238323845e-16,-0.00296949505375,0.00431218006035,0.00651598579548,-2.08666614333e-16,-0.00617660336189,0.0063336133893,-3.69940963297e-18,-4.58346101345e-16,0.000387277156953,0.012684687158,-2.57526180644e-15,0.00671960904735,-0.00986952972788,-1.83553196354e-14,0.000212590661187,4.33944238217e-17,-0.001645131685,-0.00156389482533,-1.17769757304e-17,-3.32893483871e-16,-3.28219641997e-16,0.0053693000466,0.00185381101865,-0.00225383146987,1.9811445726e-16,0.00841794032936,-0.00114351553058,-0.000453441722202,0.000619350060691,0.00555835503187,1.34270442785e-12,-0.00178707375441,2.23212711148e-16,1.41027192597e-14,0.00521943577725,3.49992821019e-16,-7.58625143924e-17,-2.16223660025e-16,-9.08059569997e-14,0.00182161838438,-0.000722146197738,0.00228462459998,0.000481705989226,-8.71292363284e-05,-3.52320543757e-16,5.14783426918e-16,-7.5742994307e-17,-0.000814803869392,0.00172749093389,-0.000105545629932,1.48559871524e-16,0.000753615813659,7.49395293876e-18,-1.00579703246e-16,-0.000149153224748,0.000289998063399,-2.54054626738e-16,-0.000320924236248,1.38861646935e-16,-2.9421995146e-05,0.000228111777212,7.82619877197e-17,2.02149043394e-16,-6.23466322091e-17,-2.77000532778e-05,6.31191619225e-17,-0.000176525202697,4.05959935141e-05,-8.74973156913e-16,-0.000350506402394,-1.121991994e-16,1.69196255573e-16,-4.01437370783e-05,-0.000634917391956,1.00990659076e-16,-0.000482181012589,-3.78714971535e-17,8.5707686265e-05,0.000451575187047,-2.01531437515e-05,-4.35630462962e-17,-0.00049325969262,-0.000470250384989,6.04905131516e-17,-1.20529442249e-16,1.48619076417e-16,-8.07925272608e-16,3.96673315661e-05,6.69693065306e-05,0.000256913279792,1.42213857048e-17,-3.84461508393e-05
-2.78836910968e-16,0.0909642989165,0.0283028824792,0.177825476626,0.0721380802108,2.01685447081e-17,-0.194704472222,-2.0761273088e-15,-0.230284287042,-2.49872982261e-15,-2.83073747215e-14,-6.41249371012e-15,-0.167062596803,0.116274192451,0.216858902753,1.37284177181e-15,3.89063989324e-12,-0.176910621647,0.310402911086,1.27540044208e-08,0.206171855684,-0.0275696290142,4.53480217241e-09,0.198610362683,-9.53826943356e-16,1.27125934158e-15,-1.08346896062e-06,-0.00950311567745,-0.241757792274,-0.121301671906,-0.291156860568,-2.92872911321e-15,-0.200367597001,2.89242122489e-06,-0.0602843340613,0.104230015712,2.82427426681e-15,-2.74693692258e-15,-0.229381320162,1.00990659076e-16,1.66508349152e-14,0.117945102175,-0.188442611152,0.0336423978795,0.118255439374,-0.0353055809858,-1.11089724984e-15,-0.107770170396,-3.16928266786e-14,7.44820329987e-15,7.39938045335e-16,7.16801152904e-16,7.35969428017e-15,0.128882673911,0.034206596423,1.44164165831e-14,0.130924713552,0.0435912754176,1.87531841465e-15,-9.50319776781e-16,-2.6036654293e-17,0.00115202256701,-0.00342763955303,-0.00544256135772,-0.0755267595563,6.56439283994e-16,0.0109301619114,-0.0068503629727,-4.29210301073e-16,0.0597025066534,-1.26864539434e-15,4.44237027077e-16,-0.0329476261406,1.30624711104e-13,0.0137909922763,0.00767970300887,0.015608767167,-0.0117565042831,-1.43573515381e-14,-3.72474688037e-15,-0.000232643712461,-0.00377451046692,0.00808403923749,-0.00776666366867,0.00440813267252,1.46884286114e-11,2.0178110417e-11,0.010943151793,0.0053123512819,-0.00608636486247,0.00160129763702,0.00334787131469,-6.84899851908e-15,-2.9563003478e-14,-5.55448624918e-16,0.00900773272059,3.57127052493e-16,-2.11232749576e-16,0.000592333427313,-0.000481134963868,0.00151385181844,-0.000159278005896,5.68072457303e-16,-0.00205796273984,-6.71467983961e-17,1.20078457318e-16,-0.004922463261,-4.82861588707e-16,0.0018363390167,0.000503955935135,-2.65100480075e-16,-0.00651598579548,0.0063336133893,0.00617660336189,-3.03256420168e-16,4.72746480609e-16,0.00288728803848,-0.00665350683542,3.28219641997e-16,0.0123934995952,-1.76228700088e-14,0.00986952972789,0.00151053553303,-5.99632038264e-17,0.00127496449607,-0.00113585562996,-2.75440924146e-16,-1.57180245516e-16,1.07302575268e-16,-0.00077623433539,-0.00364244182685,-0.00484518651575,-0.00841794032936,-2.90348144844e-16,-0.0016370267464,-0.00317823304812,0.00434110655166,-0.00107977513981,0.00178707375441,1.34125694319e-12,2.14845683786e-15,-7.2426091103e-15,3.72403055343e-16,-0.00521943577725,1.11974716701e-16,-3.23810208426e-16,-0.00182161838438,-9.0878969336e-14,0.000512849679756,0.000144149857157,-0.000342095219909,-0.00236216293739,5.6294259882e-16,2.47493905803e-16,-1.51485988614e-16,-0.000186678181899,-0.000203699739153,-0.00189286233649,-0.00075361581366,-1.51485988614e-16,-1.32702822804e-15,-3.04975133453e-17,-1.29007925999e-06,0.000339168940143,1.76733653383e-16,0.000307084177999,-2.94219951459e-05,-6.58806252566e-17,5.36512876341e-17,-0.000228111777212,2.41866611093e-16,-9.70622820009e-17,0.000147725751706,-1.00990659076e-16,1.74811999513e-06,0.000108399820976,-0.000350506402394,4.92329462996e-16,2.04791058341e-16,-9.02804229213e-16,0.000778732019499,7.22437329904e-05,2.5247664769e-17,-0.000159960707632,1.89357485768e-16,-0.00032467779961,4.72288598114e-05,-0.000322530413273,-0.00049325969262,7.25870362109e-17,6.31191619225e-17,0.000470250384989,-4.18237739875e-16,1.02284139094e-16,-2.5247664769e-17,0.000224802336159,-0.000146677549473,3.52486631788e-06,3.84461508393e-05,1.07302575268e-16
0.111879446793,-1.03969757153e-16,0.00117035409871,-0.00380483265793,0.00892000153713,0.218136555067,-1.18682916771e-15,0.201293124101,-3.20719313803e-15,-0.189218239293,0.0413393756657,-0.012950519402,0.00879954049599,-0.0325126809575,0.0242114100091,0.221286811492,-0.0717004902653,-1.57729157186e-12,4.12889705454e-09,-0.100487178328,-0.0709575972712,-0.0382923162081,-0.0926236292449,0.0683436392188,0.0266255299079,-0.115469681944,-0.0450756889292,0.0154225303861,0.00393467474205,-0.00904976422743,1.75733287017e-15,0.0649591777042,-0.0953410122026,-0.0744742794624,0.138137990687,-0.103381710623,-0.0887947789006,0.188165045479,-1.38184890716e-15,0.175895794096,0.113145336521,2.96029469719e-15,-0.147320223699,0.169255801407,-0.257510406326,0.0850735865644,0.134985622254,8.53373664272e-14,-0.282781185434,0.0418751641737,-0.0340834829611,-0.038951948829,0.225028725807,1.51021618532e-14,-0.108374312837,-0.268045280994,-0.0601081439048,0.265575113226,0.151512116157,-0.253850031675,-0.0328680168648,0.00691381492531,0.0966921739041,-0.0594317689161,1.00963102112e-14,0.21247825921,0.104930822579,0.230261927732,0.180093199581,0.00721019815746,-0.00341946565254,0.237374907142,5.60728354323e-13,0.141030257028,0.045390903108,0.083638709411,0.0167426589547,0.130109960499,0.0258979970576,0.142031955859,-0.028134743553,0.0923308727727,-0.00738840939897,-0.0517193331826,-1.28285876493e-10,0.038498072753,-0.0641470330264,1.18253742669e-10,-0.0481873980301,-0.0199264259932,0.061137973974,0.0109946858702,-0.0346130606199,-0.0516507347255,0.0840899570998,-1.45387792522e-15,-0.00650590436208,0.00168858770097,0.0309095322992,-0.000204226389124,5.09844681528e-05,0.116049874468,-0.0603614284867,-2.26617715167e-14,0.000458586596708,0.00325252506819,-0.000923796902934,0.0722915146415,-0.00411706279623,0.00597863130794,-0.0658605758382,5.96331164489e-16,-0.0478250636709,0.0490407827511,-0.00556312636764,-0.00785131440815,-0.000228276030176,-0.00747684178234,-0.0558624343054,-0.00396079564757,0.0373084364733,6.8298258967e-14,0.0013671180864,0.00607426338782,-0.0105794359381,-0.0100570217384,0.00798508981835,0.0163815129208,-0.0130089479563,-0.00747081676877,-0.00257938322017,0.00313596964091,5.10543675117e-16,0.0126577593993,-0.0034310605474,0.00451377409527,0.00615905324004,0.0166775633109,2.93690333946e-12,-0.00391209531912,-0.00725285163262,0.0147798007436,-0.00300533286122,-2.13641331942e-14,-0.000251513565605,-0.00535628446916,2.59562980418e-14,-0.000536465089136,0.00299847092853,-0.00876272112307,-0.00150479026631,0.000334185843757,0.0023840901224,-0.00796101608133,0.00594470171704,0.000188621595829,-0.000399902490612,2.44331008957e-05,-7.59070437967e-16,-0.00238696898108,8.12772538272e-05,0.00102164774721,4.52754781813e-05,-8.80289448267e-05,0.00458228995812,9.74165880801e-05,-3.14399327813e-16,-0.00509413295721,0.0057312293724,4.15981847466e-17,-5.12870814427e-07,0.00119054249852,0.000128676769472,0.00181091377313,0.000820023434089,-0.000188583077674,6.55303881378e-15,0.00246848349378,0.000221886450075,-0.00135626975398,-3.7330913467e-05,-0.00059042949019,-0.00402972544522,-0.000448395166126,0.00196471445757,-0.00023641319349,-0.0012456097781,5.55897525732e-05,-3.62334423382e-16,-0.000969096886542,0.00096525370485,-2.54243916281e-16,-0.000571825097293,0.000111349852687,2.01954012819e-05,-7.53242356469e-06,-1.27167914434e-05,-4.87852236699e-05,-6.5407136677e-17,-0.000192152517167
-1.07723822629e-15,0.111879446793,0.212788286875,-0.0282999188014,-0.0399903629488,-5.18388747181e-15,0.201293124101,2.66631670883e-15,-0.189218239293,-1.27055621388e-15,0.0129505194019,0.0413393756657,-0.200258197864,-0.0905600813058,-0.0488270162196,-7.66615616185e-16,1.57661197225e-12,-0.0717004902653,-0.100487178328,-4.12887793137e-09,-0.0583405310812,-0.0757414632114,-2.35197136938e-09,-0.103009150035,0.115469681944,0.0266255299079,-1.53066360308e-07,0.0235995860691,-0.0341541721977,0.0253693542032,0.0649591777042,1.61474479156e-15,-0.182164110756,9.40106769335e-07,-0.100373187022,0.0338772718839,-0.188165045479,-0.0887947789006,-0.175895794096,-6.98687650194e-17,-5.66713316268e-15,0.113145336521,0.231122455721,-0.01636591066,-0.0575273487577,0.258660145157,-3.1114890022e-14,0.134985622254,0.0418751641737,0.282781185434,-0.038951948829,0.0340834829611,-6.22608328284e-15,-0.225028725807,-0.170034675318,-1.82435108662e-14,0.358727266762,0.0118047170869,-0.253850031675,-0.151512116157,-4.40173219622e-15,0.012244435888,0.0610103269539,0.100684819188,-0.21247825921,-3.40027989761e-15,-0.205993356508,0.100439505555,5.74476512381e-15,-0.20975038303,0.237374907142,0.00341946565253,0.141030257028,-5.73234401003e-13,0.147269021431,-0.0349958761164,0.0462447548424,-0.0348314926153,0.142031955859,-0.0258979970576,0.038744426803,-0.02137630455,0.0724284865648,-0.0695849783321,-0.038498072753,-1.28284591616e-10,1.18283642578e-10,0.0641470330264,-0.0510820830412,0.0103275239153,-0.0268139871302,-0.056060644814,-0.0516507347253,0.0346130606199,2.48422275624e-16,0.0840899570998,-0.00168858770097,-0.00650590436209,-0.0547127863781,0.0923050173239,0.0518927936757,0.0147122264412,2.06792136467e-14,-0.0603614284867,0.00325252506819,-0.000458586596694,0.0176085660813,1.19553220144e-15,0.0567599423768,0.0418073925306,1.49053365375e-15,0.0658605758382,0.0490407827511,0.0478250636709,-0.00785131440815,0.00556312636764,-0.0564027165948,-3.38929002873e-05,-1.66132396824e-15,0.00331468756699,6.62433524345e-14,-0.0373084364733,0.0142280633201,-1.91362784192e-15,0.00572033316136,-0.00408336151538,0.0163815129208,-0.00798508981835,5.58950120155e-16,-0.00490840891328,0.014739598396,0.000430249432146,-0.0126577593993,1.86316706718e-16,-0.0117351940582,-0.00818082349096,0.011174078778,-0.00432674227971,0.00391209531912,2.93759340926e-12,-0.0147798007436,-0.00725285163262,2.06811544457e-14,0.00300533286118,-0.00535628446916,0.000251513565604,0.00053646508914,2.47956483858e-14,-0.00165843542585,-0.000407907311404,0.00110625560296,0.0091657834045,-0.00796101608133,-0.0023840901224,-3.1052784453e-17,-0.0053038635457,-0.00242641281736,0.00123171746667,0.00238696898108,-2.17369491171e-16,0.00102164774721,-8.1277253826e-05,-0.00433155809761,-0.00111461054397,-6.21055689061e-17,0.00100594134935,-0.00509413295721,9.70399514158e-17,-1.86316706718e-16,-0.0057312293724,-0.00119054249852,-5.12870813197e-07,-0.00172211047372,-3.5710702121e-16,0.000477272156149,0.000900286187608,0.00246848349378,-4.37456100982e-15,-0.00135626975398,-0.000221886450072,0.00158671272647,-0.00234795410912,-2.75593462021e-16,0.0029595945996,-1.08684745586e-16,0.00223862076883,-0.000447590440523,-0.000508790613765,-0.000969096886541,1.24211137812e-16,-7.76319611326e-17,-0.000965253704851,0.000111349852689,0.000571825097293,-2.17369491171e-16,-3.20608576514e-05,4.39989858799e-05,-6.51898143641e-06,0.000192152517167,-1.08684745586e-16
0.135007941188,1.85612201734e-17,5.03858795081e-15,7.02604316231e-17,-1.71894298739e-16,0.242117787345,-9.42116230672e-16,0.207479270051,1.12368206593e-15,-0.150957626068,1.39609331113e-15,6.40977205826e-17,1.87261317916e-17,-1.6595916928e-15,-1.77993098217e-16,0.162684565672,-0.028010402871,-6.16004340442e-13,-3.24076709731e-10,0.00788730002477,2.3532703961e-17,4.49666774443e-16,0.0143500235539,-3.27651654183e-10,3.43263386754e-16,3.77416894049e-17,-0.0711940403065,-5.05875121249e-16,3.19065342569e-07,1.96645523894e-16,-3.03217683356e-16,0.14032746645,-3.93458427638e-16,-0.13967040206,-4.3589575695e-14,3.87590494398e-06,-5.4570420211e-16,-3.073945045e-15,8.43125195281e-16,0.0906603152211,0.130777385321,-7.07627890511e-15,2.49892941839e-15,0.134642787084,-0.0383044216711,1.12143663424e-14,-0.0150651458806,1.6641431996e-16,1.02356604003e-15,5.41235050155e-17,-3.46512536015e-16,6.73675493071e-16,0.0771920539681,-3.40588514466e-15,4.26759735286e-16,0.00880102091261,-6.60448074963e-16,-1.39584061233e-15,-7.19535812069e-16,1.31988498963e-15,0.17154283296,2.49199963114e-15,-2.55294212665e-15,1.97080515986e-15,1.12072437905e-15,-0.0260171959261,4.63718861145e-16,6.52682924479e-16,0.0015308172185,-1.64292313683e-15,1.42716081873e-15,5.8241354633e-16,-3.76826768e-13,-0.0939263653503,3.39278562911e-12,-3.17342958006e-16,-0.0675801792663,-0.0897242290588,-6.46590976646e-15,6.35095882882e-14,8.92307505536e-16,1.71147185453e-12,-0.0630255779794,-0.0656010440381,6.81651193232e-10,-0.204562106965,0.0553734675159,-1.02109434605e-10,-1.37388422686e-15,1.06044844936e-11,-0.0118292890825,0.0056579871027,-7.83410250638e-16,-8.59842461663e-15,-0.294820561881,2.89930245226e-15,-2.90898991969e-15,1.09248161121e-15,-0.122435521423,-3.45139742012e-15,1.61862706999e-15,-0.455321195299,0.273790066437,1.00899617667e-13,-5.69210671722e-14,-7.18372429007e-15,3.19289757517e-15,-0.370667646538,4.95043304416e-16,1.0966115991e-14,0.362390133981,1.17251230855e-16,0.29227091809,-0.299700481261,5.47512747803e-16,1.24234896734e-14,-4.82454976746e-16,3.11622950715e-14,0.516508212819,3.11195170074e-16,-0.360775798058,-6.53835599344e-13,-4.50105902153e-16,-0.0637842366366,2.94150445077e-16,-1.19149985155e-16,-2.00794188254e-16,-7.63860818678e-16,0.205815672533,1.52343300518e-14,1.53401946493e-16,1.99071228269e-17,-1.19648484926e-15,-0.282547032416,-1.36656543171e-15,-0.168788772266,-0.123574495991,1.29548183125e-12,-6.0007577091e-11,0.079913672945,-8.7292030753e-16,4.61613430438e-13,0.168454984334,-2.30713066185e-15,-1.1154356885e-16,-1.09655322522e-14,-4.03101943948e-12,0.0799719041609,0.0547987572298,5.64460156389e-13,0.0821511773945,8.87037973023e-16,-1.51892569429e-16,-3.311041922e-14,0.0639812511488,3.00070601435e-16,8.61422189974e-17,-3.70485979069e-15,-2.17150675915e-15,-0.0275777224036,-9.40035605279e-16,-1.73110208021e-16,2.27029025769e-16,7.19712018747e-17,0.0215456340493,-1.27232029439e-15,6.9894966119e-16,-0.0119949647608,0.0049309629159,-3.89815226293e-16,-4.65053714477e-15,-3.01271063902e-16,-1.17686226124e-16,-0.0032499456151,-1.36559569135e-16,-1.3568368968e-15,-1.33211309648e-14,-0.0072072182826,-4.73197654276e-18,-2.88152859606e-15,-1.32470192341e-17,-7.84282988454e-16,0.0127641817504,-4.08388769758e-17,-0.0102483337364,1.32506786317e-16,-1.81238904168e-15,2.28346408897e-17,-1.36381951232e-16,0.0112227972798,-0.0112828120812,-1.78886772261e-16,-1.2738540784e-15,9.9413648132e-17,0.00773205253515,-8.41386587433e-17,2.39507571511e-17,1.27262103953e-14,-6.1880783071e-17,-0.00171852667879
-1.04903360733e-15,0.135007941188,0.237763464074,-0.0214720262992,-0.040354803763,-5.63423264993e-15,0.207479270051,2.79206317429e-15,-0.150957626068,-1.23332676587e-15,-2.12318825861e-14,-2.68894163023e-15,-0.130094927947,-0.0784998074566,-0.0581322445798,-8.61349002022e-16,6.16303444591e-13,-0.028010402871,0.00788730002477,3.24079041231e-10,-0.00270067796013,0.013304292701,1.06177267338e-10,0.00465030217069,-1.71838183855e-16,-1.95772924888e-16,-1.25991388171e-07,0.0382893454737,-0.0281128498411,0.0530300393385,0.14032746645,1.65814623076e-15,-0.0247496487885,-2.81143416234e-06,-0.092904440946,-0.101311603264,1.23038745667e-16,4.0886216951e-15,-0.0906603152211,3.55986196434e-16,8.52493259882e-15,0.130777385321,0.00781117652685,0.0135463146836,0.0476162668474,0.130706093372,-7.11972392869e-16,-0.0150651458806,-4.54672675412e-15,-2.03395814609e-15,2.87161791676e-16,-3.2494442814e-16,-1.91108379138e-15,-0.0771920539681,0.00789820056374,-8.00032136197e-15,-0.00291686254154,0.00256287141172,-1.23525746524e-15,1.39509457621e-17,2.54811172185e-15,-0.168533307057,-0.00711981827869,-0.0311893594069,0.0260171959261,-7.49444624072e-16,-0.0013659160746,0.000612419943112,7.68180739674e-16,0.00032033801974,1.12528888924e-15,4.21378796843e-16,-0.0939263653504,3.78094812844e-13,-0.0827966601985,0.0691806997281,0.0249577774946,-0.0187981673974,-5.73741203384e-14,4.66775223673e-14,0.0873683966218,0.0234185950552,0.00699349848535,-0.00671893703157,0.204562106965,6.81651755726e-10,-1.0210184368e-10,-0.0553734675159,0.0034120745154,0.00862805270194,0.00399816866059,0.00835906691488,-3.55473853302e-14,4.26305201161e-14,-4.34677881962e-15,-0.294820561881,1.19929738514e-15,9.28387256568e-15,0.214317855426,-0.361996326234,-0.204971115504,-0.0576299075251,-8.63734929243e-14,0.273790066437,1.79859819965e-14,-1.03051565407e-14,-0.125279480345,-4.1968898948e-15,-0.277976688523,-0.21078073117,-4.00952873879e-15,-0.362390133981,-0.299700481261,-0.29227091809,-3.17503970906e-15,-7.05620887933e-15,0.505768008432,0.0365749302603,1.02278698559e-14,-0.098192311474,-6.42011737211e-13,0.360775798058,-0.0474022339953,1.0164342714e-14,0.0260276381293,-0.0338233515337,-2.88507588656e-15,2.10072777211e-15,-9.87393292215e-15,0.0947438943688,-0.153013994157,0.0998519060021,0.282547032416,6.55764046063e-17,0.196058935358,-0.0389425120924,0.0531910630291,0.0312312525255,-0.079913672945,-6.00060309691e-11,1.42476556468e-13,-2.25963335978e-13,-2.60432006865e-15,-0.168454984334,-7.99209924859e-15,1.1273914037e-14,-0.0799719041606,-3.98307334356e-12,0.0739569759898,0.0347444047992,-0.049332833701,0.0253215974595,9.74910606651e-15,-1.67356808748e-14,4.21562601041e-16,-0.0575491883247,-0.0266223569531,0.00854058147894,0.0275777224036,-8.12679014228e-16,2.91695941105e-14,1.85704438821e-14,-0.0203685501873,-0.00475674068837,-1.0866947049e-15,0.0051681648465,-0.0119949647608,-3.12658929105e-15,-8.24389086479e-16,-0.0049309629159,2.47449310265e-15,-8.83453740586e-16,0.00185901955648,-6.93236277267e-16,-0.000871107307747,-0.00251939771535,-0.0072072182826,1.28155030716e-14,-1.040460567e-14,-9.34101718864e-15,-0.00273211860994,0.00764995850271,1.61130594176e-15,-0.00984570965264,9.18069664488e-16,-0.00700556097763,0.00165518184785,0.00729457557453,0.0112227972798,-1.12416693611e-15,1.0492224737e-15,0.0112828120812,-9.67455796753e-15,-1.43386316459e-15,5.62083468054e-15,0.00406860744333,0.0061818468194,-0.00223960705927,0.00171852667879,6.93236277267e-16
0.139646866064,1.91577945181e-17,-0.00273894074971,0.00890432325069,-0.0208751827541,0.221221659513,-1.09815120184e-15,0.166882132425,9.27622306082e-15,-0.065371207681,-0.0729016815462,0.0228381446525,-0.014855358247,0.0548878118592,-0.0408736307893,0.0480718171028,0.0295723565414,6.51237478111e-13,-4.73378775806e-09,0.115208833675,0.0764831223131,0.0412741696002,0.117071834746,-0.0736656136431,-0.0270220715458,0.117189404968,-0.0672616238471,-0.000899725477299,-0.000229229333454,0.000527948607337,-6.24925935321e-16,0.146477974676,0.0477485937725,-0.13411985019,-0.0691821352581,0.0517802855122,0.0373097447071,-0.0790630924085,-5.57172013948e-16,-0.0109515642468,0.0875541971694,-5.1430304781e-15,0.0118165003712,0.0227517769304,0.0103199686509,-0.00682372074908,-0.105308111,-2.13785692447e-15,0.0109410597003,-0.00162018795728,0.0276663218954,0.0316181640235,-0.0171957705815,-1.28569698175e-14,-0.00703988125561,0.132048684995,-0.00390456174075,0.0172514797336,0.0217240345306,-0.0363973983968,0.199926323727,0.00368333559214,0.0515127653068,-0.0316622808272,1.11768816905e-15,-0.0710561981177,0.0100180924632,0.0219838673335,-0.0273752089831,0.000688381450216,-0.000546013419723,0.0379035492603,-3.20962611491e-13,-0.081155758366,0.0310033202069,0.0571276954532,-0.097798812119,-0.0561585814546,0.00273695749396,0.0150102506039,0.0168204952841,-0.0552004679573,-0.0826738201528,-0.0597292304912,6.17256388966e-10,-0.18523785015,0.0338344178847,-6.23900040982e-11,-0.00446170745934,-0.00184500278286,0.00501335160116,0.00132768817616,0.000505840055879,0.000754830982076,-0.23157202641,-1.27134974257e-15,0.13971049949,-0.0362614354602,0.0141055847658,0.0478291690088,-0.0119403998407,-0.205509052941,0.0863425770697,3.53013361122e-14,0.0271266477106,0.192395727068,-0.0358936233554,-0.0574759351717,-0.159966222954,0.232296449216,-0.0120424060128,-1.72515857205e-15,-0.0337805772833,0.0346392837688,-0.136635661521,-0.192835730679,-0.00520260980545,-0.170403744715,-0.253904153099,-0.0902699869872,0.157805811263,3.0069608385e-13,0.0291263437236,0.0904415798446,-0.225394053813,-0.214264060217,0.171311514603,0.351447742453,-0.189768369255,-0.146437621732,-0.0505592301335,0.0614690401669,6.02972312152e-15,0.320424560547,-0.0749360828332,0.159437818554,0.179070085382,0.36424634554,3.56880731528e-11,-0.0475413739941,-0.160027326881,0.32610235596,-0.274334936972,-4.77579392748e-13,-0.0049915252679,-0.106300545681,5.97822202313e-12,-0.118865537754,-0.0294566062804,-0.21289062669,-0.189928115515,0.00811905716373,0.0585627678139,-0.195554325717,-0.234341198648,0.0035604614277,-0.00754864460988,0.000461204417848,-1.99931225724e-14,0.101657589544,0.00185515387721,0.0233191168517,-0.000763049572051,0.00148359446163,-0.139095849593,-0.00164180896217,-6.12854374828e-15,0.131217595105,-0.141101300921,3.24253998116e-15,-8.46493832132e-06,0.01964991681,0.00275093732166,-0.0422013378017,0.0175310048481,-0.00403165411077,-6.1588584337e-14,-0.0547689731976,0.00469992315358,-0.0287280436325,-0.00071609889634,-0.0113258923243,0.0879152499447,-0.00860132404401,-0.0408493189399,-0.00510215019055,-0.0268821213948,0.00119970997599,1.71860665422e-15,0.0200958653175,-0.0191958616044,-9.53339667834e-15,-0.0139381013174,0.00271412628755,-0.000546342918221,-0.000354890627027,-0.000599152457401,-0.00229851899176,2.01627416941e-15,0.00391071434265
-7.30894547911e-16,0.139646866064,0.220578559594,0.00133739818878,-0.0283706728019,-5.0248727604e-15,0.166882132425,2.29463158445e-15,-0.065371207681,-9.70915744098e-16,-0.0228381446525,-0.0729016815462,0.000893903288346,-0.0505733600859,-0.0682381347879,-9.01827551281e-16,-6.49486925064e-13,0.0295723565414,0.115208833675,4.73377097231e-09,0.059639824229,0.0976190342737,2.66264980782e-09,0.116615941074,-0.117189404968,-0.0270220715458,-1.14756237811e-07,0.0362119303246,-0.0256059160352,0.0505796400784,0.146477974676,1.86046999226e-15,0.0608559212366,-3.92130662829e-06,-0.0637531519421,-0.141306477847,0.0790630924085,0.0373097447071,0.0109515642468,2.32558749032e-16,6.06590737059e-15,0.0875541971694,-0.0164307271257,0.00496760976786,0.017461504315,0.0145185356942,1.55039166022e-16,-0.105308111,-0.0016201879573,-0.0109410597003,0.0316181640235,-0.0276663218954,2.32558749032e-15,0.0171957705815,0.123083482517,-1.93798957527e-16,-0.0262321732721,0.0442899955893,-0.0363973983968,-0.0217240345306,4.60272524126e-15,-0.207098855308,0.0234786298606,0.0141062031293,0.0710561981177,7.1705614285e-16,0.0201013861252,-0.00824113851481,-6.58916455592e-16,-0.0293521114616,0.0379035492603,0.000546013419724,-0.081155758366,3.22791543657e-13,-0.033240927825,0.0879183610462,0.0719275161406,-0.054175716928,0.0150102506037,-0.00273695749388,0.0975652553187,0.0451405885988,-0.033637859659,0.0323172531499,0.18523785015,6.17258923934e-10,-6.23869852112e-11,-0.0338344178847,-0.00454297344316,0.00142847749515,-0.00226389313816,-0.00473317558212,0.000754830982094,-0.000505840055865,-3.87597915054e-17,-0.23157202641,0.0362614354602,0.13971049949,0.11747678082,-0.173058123753,-0.0107397136963,-0.0315894165773,1.13953787026e-14,0.0863425770697,0.192395727068,-0.0271266477106,-0.284598214657,-7.75195830108e-17,0.0558200659898,-0.00553575402227,-1.90891973164e-15,0.0120424060128,0.0346392837688,0.0337805772833,-0.192835730679,0.136635661521,-0.287411797561,0.0714025454281,-9.49614891882e-15,-0.11822278969,2.85310825271e-13,-0.157805811263,0.274166527531,-5.93509307426e-15,0.137773303142,-0.107660681687,0.351447742453,-0.171311514603,4.80621414667e-15,-0.0661864390864,0.240424392488,0.0400768818267,-0.320424560547,-5.0387728957e-15,-0.326989175676,-0.164633040469,0.224870095986,-0.105758267391,0.0475413739941,3.56963338642e-11,-0.326102355961,-0.16002732688,4.53489560613e-13,0.274334936971,-0.106300545681,0.00499152526788,0.118865537754,5.85924016229e-12,-0.178363061066,-0.0747749379359,0.118976676807,0.175409795103,-0.195554325717,-0.0585627678139,-3.29458227796e-15,0.211598507311,0.0983985976676,-0.0230099260205,-0.101657589544,4.49613581462e-15,0.0233191168516,-0.00185515387725,0.131490147287,0.0324440543249,-1.45349218145e-15,-0.0317940043629,0.131217595105,1.55750771569e-14,-3.13954311194e-15,0.141101300921,-0.01964991681,-8.46493834233e-06,0.009468938563,-2.65504571812e-15,-0.0114851498487,-0.0434803572858,-0.0547689731976,9.48064500222e-14,-0.0287280436326,-0.00469992315367,-0.00492657283598,0.0539789673152,3.87597915054e-16,-0.0706672664703,2.03488905403e-15,-0.00859583545004,0.00378594934932,0.0482759230836,0.0200958653175,1.70543082624e-15,3.87597915054e-17,0.0191958616044,0.00271412628753,0.0139381013174,-1.97674936677e-15,-0.00229871863578,0.000875469840638,0.000126713676349,-0.00391071434265,-2.71318540538e-15
0.140020826829,1.50372743133e-16,-0.00676128717344,0.0219810109399,-0.051532003901,0.183999441041,-5.04616489617e-16,0.106042220869,1.79013402651e-14,0.0206314556832,-0.14800539275,0.0463661262304,-0.0291943555209,0.107867765055,-0.0803265252077,-0.0683873920303,0.0789156438984,1.73674592587e-12,-5.74333628725e-09,0.139778666395,0.102243914953,0.0551759990796,0.132328227699,-0.0984774217665,-0.0343402903647,0.148927079386,-0.0163472627884,0.0200145308853,0.00510602047016,-0.0117442975374,-2.3735631816e-16,0.0296671923694,0.0195971882033,-0.0123372339851,-0.0283940367212,0.0212507077024,0.0024486665788,-0.00518897016094,-9.22402944878e-16,-0.0958748975549,-0.0115835578952,3.09116733584e-15,-0.049207421447,-0.105071127901,-0.0400377931582,0.0284160023855,-0.117740301513,2.79015188349e-14,-0.0883710334988,0.0130862720951,0.0625546478271,0.0714899191482,-0.0186507038959,-8.3720756837e-15,-0.0144781772761,0.0830101806887,-0.0080300980962,0.0354792890377,0.0320148784666,-0.0536391287967,0.0992958969157,0.00735519699792,0.102865060015,-0.0632259285264,-4.97419332752e-16,0.013545398299,-0.0182610919042,-0.0400724412618,0.0307111917916,-0.00125478946952,0.000139664777592,-0.00969534920971,1.18399084383e-13,0.026943192442,0.051693984898,0.0952529666672,-0.0862080682054,0.00840591507986,-0.00398208282642,-0.0218388708195,0.0490168934739,-0.160860629365,-0.111671925708,-0.0395270846092,3.44081811851e-11,-0.0103262059578,-0.0039491298977,7.28948418832e-12,-0.0011037955063,-0.000456440917719,0.0178335528978,-0.00760816059249,0.00721915259631,0.0107726542819,-0.0484320854169,-3.13915292671e-15,0.271706824642,-0.0705206804197,0.140400814449,0.0674521047175,-0.0168392032961,0.158329902371,0.0648511100819,2.93648091305e-14,0.03780576249,0.268137340051,-0.0400613142252,-0.0137721360007,-0.178540267716,0.259268922318,-0.26377731491,5.41723741468e-16,-0.153736719672,0.15764472625,-0.0715304645285,-0.100951898206,-0.00271439986312,-0.0889061295436,-0.0983390234995,-0.0470972933747,-0.157701001593,-2.8417285301e-13,0.00323679584886,0.350253662582,-0.0250479272189,-0.0238110566589,0.0227816346813,0.0467368121557,0.018041452355,0.111685935354,0.0385608209245,-0.0468815811479,-1.261529585e-14,-0.101682276839,0.0522052783248,-0.276963438531,-0.246203078085,-0.253757350647,-2.75354642147e-10,0.366706344053,0.119872133664,-0.244274437147,-0.0782316854309,3.59779790306e-13,0.0102042812189,0.217312465354,-1.56699969446e-11,0.311929107589,0.0558517474426,0.29000193105,0.28229712863,-0.0110598681229,-0.0801299504178,0.267572025855,-0.0887066872554,-0.0388470170044,0.0823607646017,-0.00503204885832,6.53108990907e-14,0.0330007934003,-0.0137516351077,-0.172856812536,0.0700725362634,-0.13624177317,-0.0254335681445,0.15077096201,3.25616378037e-15,-0.0525360166334,0.041883694368,1.03631037414e-14,-5.24483561856e-05,0.121749951972,0.010868493259,-0.0226511427931,0.069262068065,-0.0159283910907,8.21729457504e-14,-0.0179845970012,0.013112526523,-0.0801496581488,-0.00127147334012,-0.0201097505063,-0.0947478560128,-0.0152721282877,0.0137598497919,-0.0068729816119,-0.0362122476083,0.0016160999376,-6.24710676292e-16,-0.0504159317582,0.0381885631371,6.34678361431e-15,0.00538132990721,-0.00104789085906,-0.023809693696,0.0013981629124,0.00236048145827,0.00905547727374,-9.16340414489e-16,0.0030113691519
-4.79489625441e-16,0.140020826829,0.188924080784,0.0354143222281,-0.00968189323269,-4.05716938548e-15,0.106042220869,1.53504669369e-15,0.0206314556832,-6.2481446244e-16,-0.0463661262304,-0.14800539275,0.131992022801,-0.0208043275204,-0.0759094002496,-8.55086074956e-16,-1.73450812736e-12,0.0789156438984,0.139778666395,5.74331089857e-09,0.0842773207339,0.108085132595,3.38059787674e-09,0.148059814889,-0.148927079386,-0.0343402903647,-1.24049663298e-07,0.00795754496181,-0.0276795867298,0.00152721103812,0.0296671923694,1.21448707713e-15,0.0325447755819,-7.4971134444e-07,0.00224274335069,-0.0270162675268,0.00518897016094,0.0024486665788,0.0958748975549,4.2749945115e-16,-6.97601377103e-15,-0.0115835578951,0.0678233826207,-0.0217254920702,-0.0763666614842,-0.0704835519423,-7.22862708308e-15,-0.117740301513,0.013086272095,0.0883710334988,0.0714899191482,-0.0625546478271,5.82953797022e-16,0.0186507038959,0.0839151688872,4.17783554533e-16,0.00854434518939,0.0361774617293,-0.0536391287967,-0.0320148784666,6.60680969959e-16,-0.118880619967,0.059332761337,0.0827014770449,-0.013545398299,1.39908911285e-15,-0.0195194055782,0.00734541463767,-5.82953797022e-16,0.0494879532186,-0.00969534920971,-0.000139664777591,0.026943192442,-1.10955539367e-13,0.0387394109442,0.0679134416378,0.0915453519862,-0.0689518468199,-0.0218388708197,0.00398208282658,0.105146444371,0.0835194400629,-0.112366531963,0.1079550749,0.0103262059577,3.44097611635e-11,7.27907201831e-12,0.00394912989769,-0.00591011533057,-0.0117494225608,-0.00616841779252,-0.0128964587229,0.0107726542819,-0.00721915259633,-2.04033828958e-16,-0.0484320854169,0.0705206804198,0.271706824642,-0.0452698806214,0.112238789432,0.18659850247,0.0121730363002,3.12463235204e-14,0.0648511100819,0.268137340051,-0.03780576249,-0.30061682404,-5.35345903599e-15,0.100081289934,0.022468698511,7.77271729363e-16,0.26377731491,0.15764472625,0.153736719672,-0.100951898206,0.0715304645285,-0.116530984711,0.0396704138184,-1.16590759404e-15,-0.068170186246,-2.84870088812e-13,0.157701001593,0.283295018299,1.22225979442e-14,-0.12351169247,0.168437716996,0.0467368121557,-0.0227816346813,-2.33181518809e-15,-0.00784123503071,-0.0891787858046,-0.092031086682,0.101682276839,8.39453467712e-15,0.420492091168,0.0764204821276,-0.1043817274,0.104372660192,-0.366706344052,-2.75370312599e-10,0.244274437147,0.119872133664,-3.33488435483e-13,0.0782316854316,0.217312465354,-0.0102042812189,-0.311929107588,-1.54820869413e-11,0.264191589791,0.111829861097,-0.176228402932,-0.231678577499,0.267572025855,0.0801299504177,5.94612872963e-15,0.0708887986597,0.0271988218368,-0.10208617179,-0.0330007934001,-4.52760782354e-15,-0.172856812537,0.0137516351077,0.0246501604395,-0.15372726693,1.47681628579e-15,-0.150369636103,-0.0525360166334,9.78876584167e-15,2.72045105277e-16,-0.041883694368,-0.121749951972,-5.24483561778e-05,-0.0450054043412,-2.41925825764e-15,-0.00675725445028,-0.0600915902877,-0.0179845970011,3.95436992313e-14,-0.0801496581488,-0.013112526523,0.044945167987,-0.0544970662243,4.00294940622e-15,0.0680177512045,2.35124698132e-15,0.035442189168,-0.00600964530626,0.016070015204,-0.0504159317582,9.91021454938e-16,-1.12704400758e-15,-0.0381885631371,-0.00104789085902,-0.00538132990719,-1.35245280909e-14,-0.00460500915025,-0.0242060431124,0.00702077505445,-0.0030113691519,2.72045105277e-16
0.14003210342,2.36989333691e-16,-0.0116442328044,0.0378555150956,-0.0887479905686,0.141119615651,-1.19884482141e-16,0.0363089752944,2.27619375443e-14,0.0725414638127,-0.194725408177,0.0610022559858,-0.0361001372216,0.133383356158,-0.0993273710207,-0.147484255904,0.106199901061,2.3356105491e-12,-2.52961917969e-09,0.0615645541524,0.0553622300247,0.0298762655391,0.0438373897248,-0.0533227783156,-0.0153806436671,0.0667028238869,0.0367907722894,0.0412578618869,0.0105252112007,-0.0242096409121,5.47507348652e-16,-0.0983914225903,-0.0392472070696,0.102252289874,0.0568646189024,-0.0425608555632,-0.0521703446255,0.110554194634,8.92055653303e-17,-0.0572225864543,-0.0274448816249,4.91567244454e-15,-0.0558455374087,-0.0485991073292,-0.0655369993834,0.0322493412084,-0.0761321258823,2.08927602426e-14,-0.0661519917005,0.00979600360829,0.0899150370686,0.102758451267,0.0920528131065,3.50212122649e-15,0.0205390530341,-0.0632683889744,0.0113916695121,-0.0503316809331,-0.0175288706262,0.0293686371529,-0.00510259330644,0.00520617374203,0.0728102013545,-0.0447527332039,-1.78284717669e-15,0.0453462323472,-0.034862396877,-0.0765026187056,0.0168796487328,-0.00239552863065,0.00052211850253,-0.0362447948447,1.85188854684e-13,0.0442314214175,0.0639485192441,0.117833558079,-0.138096018478,-0.0313586696131,0.0016921751393,0.00928036805933,0.0461862259304,-0.151571118539,-0.113289077917,-0.0456401265509,-5.96648322501e-10,0.179051891858,0.00717188224315,-1.32286067751e-11,-0.016690736315,-0.00690194397183,0.00724992244851,0.0104693455052,-0.00389313344224,-0.00580946033299,0.0192946845444,-1.47007345402e-15,0.146919778798,-0.0381325819901,0.0280006141866,-0.0314707308785,0.00785656781739,0.273867367713,0.264860699944,9.97270730359e-14,0.0174519960612,0.123778268027,0.00891543870985,-0.221358992161,0.0397332150691,-0.0576989604809,-0.153500842027,4.76099129217e-15,-0.0471780276417,0.0483772989854,0.193516158145,0.273111933873,-0.00179443309449,-0.0587739865901,0.204409133802,-0.031135037634,-0.258129086187,-4.71276810058e-13,-0.0212421023269,0.18104227842,0.164381894288,0.156264690662,-0.0826269509102,-0.169510236545,-0.0693887917525,0.331028980439,0.114291465573,-0.138953593034,2.1821860054e-15,-0.063285026661,-0.0154863841487,0.107199282959,0.0913668897449,0.0752756031339,1.58345714041e-10,-0.210879477074,-0.0606026462572,0.123495568583,-0.0255120604052,-1.79814071713e-13,0.0106590346142,0.226996986913,1.75525415022e-11,-0.349549219463,-0.0644952500831,-0.333343900667,-0.324931677597,0.0127128104547,0.100058446219,-0.334117780172,0.269377272885,-0.018117657533,0.0384118071934,-0.00234687100669,1.82665554894e-14,0.159435828945,-0.00777350508072,-0.0977122574856,0.00215858573343,-0.00419693026035,-0.0961076966357,0.00464450218254,1.72087925424e-14,-0.128850579552,0.041347502758,-1.55743276279e-14,4.80287391819e-05,-0.111490561681,0.00423142677877,-0.082951673374,0.0269657773695,-0.00620139507823,-1.24624850567e-13,-0.0617304060233,-0.00353614751711,0.0216145236514,0.00385509308486,0.0609725408081,-0.0276854018375,0.0463049238207,0.00269545606363,0.0144534530147,0.0761521052895,-0.0033985576907,1.04407693881e-15,0.0259642551556,0.00189079026252,3.34011197677e-14,0.0462883981249,-0.00901360632254,0.0217491761703,0.000308257366504,0.000520422757285,0.00199648950216,-4.45837172093e-15,-0.00713061819175
